booster[0]:
0:[Chat Conversation Started<1] yes=1,no=2,missing=2
	1:[Wallet Opened<1] yes=3,no=4,missing=4
		3:leaf=-0.571314752
		4:[Account Setup Profile Skip<1] yes=7,no=8,missing=8
			7:[device_model:{0,1,2,3,4,5,6,7,8,9,10,11,12,13,14,15,16,17,18,19,20,21,22,23,24,25,26,27,28,29,30,31,32,33,34,35,36,37,38,39,40,41,42,43,44,45,46,47,48,49,50,51,52,53,54,55,56,57,58,59,60,61,62,63,64,65,66,67,68,69,70,71,72,73,74,75,76,77,78,79,80,81,82,83,84,85,86,87,88,89,90,91,92,93,94,95,96,97,98,99,100,101,102,103,104,105,106,107,108,109,110,111,112,113,114,115,116,117,118,119,120,121,122,123,124,125,126,127,128,129,130,131,132,133,134,135,136,137,138,139,140,141,142,143,144,145,146,147,148,149,150,151,152,153,154,155,156,157,158,159,160,161,162,163,164,165,166,167,168,169,170,171,172,173,174,175,176,177,178,179,180,181,182,183,184,185,186,187,188,189,190,191,192,193,194,195,196,197,198,199,200,201,202,203,204,205,206,207,208,209,210,211,212,213,214,215,216,217,218,219,220,221,222,223,224,225,226,227,228,229,230,231,232,233,234,235,236,237,238,239,240,242,243,244,246,248}] yes=12,no=11,missing=12
				11:[Order<1] yes=19,no=20,missing=20
					19:leaf=0.150000006
					20:leaf=-0.200000018
				12:leaf=-0.451239705
			8:[Account Setup Profile Skip<2] yes=13,no=14,missing=14
				13:[user_state:{0,1,2,3,5,6,7,8,9,10,11,12,13,14,15,16,17,18,19,20,21,22,23,24,25,26,27,28,29,30,31,32,33}] yes=22,no=21,missing=22
					21:leaf=0.0545454584
					22:leaf=-0.300000012
				14:leaf=0.200000018
	2:[Transaction Refund<1] yes=5,no=6,missing=6
		5:[device_model:{0,1,2,3,4,5,6,7,8,9,10,11,12,13,14,15,16,17,18,19,20,21,22,23,24,25,26,27,28,29,30,31,32,33,34,35,36,37,38,39,40,41,42,43,44,165,169,240}] yes=10,no=9,missing=10
			9:[Chat Conversation Opened<4] yes=15,no=16,missing=16
				15:[Calculator View<2] yes=23,no=24,missing=24
					23:[Chat Conversation Opened<1] yes=29,no=30,missing=30
						29:leaf=0.458823562
						30:leaf=0.116666675
					24:[user_state:{0,1,2,3,4,5,6,7,8,9}] yes=32,no=31,missing=32
						31:leaf=-0
						32:leaf=-0.400000036
				16:[Add Vehicle Break<1] yes=25,no=26,missing=26
					25:[Subscription Premium Renew<1] yes=33,no=34,missing=34
						33:leaf=0.457142889
						34:leaf=0.0666666701
					26:[device_model:{0,1,2,3,4,5,6,7,8,9,10,11,12,13,14,15,16,17,18,19,20,21,22,23,24,25,26,27,28,29,30,31,32,33,34,35,36,37,38,39,40,41,42,43,44,45,46,47,48,49,50,51,52,53,54,55,56,57,58,59,60,61,62,63,64,65,66,67,68,69,70,71,72,73,74,75,76,77,78,79,80,81,82,83,84,85,86,87,88,89,90,91,92,93,94,95,96,97,98,99,100,101,102,103,104,105,106,107,108,109,110,111,112,113,114,115,116,117,118,119,120,121,122,123,124,125,126,127,128,129,130,131,132,133,134,135,136,137,138,139,140,141,142,143,144,145,146,147,148,149,150,151,152,153,154,155,156,157,158,159,160,161,162,163,164,165,166,167,168,169,170,171,172,173,174,175,176,177,178,179,180,181,182,183,184,185,186,187,188,189,190,191,192,193,194,195,196,197,198,199,200,201,202,203,204,205,206,207,208,209,210,211,212,213,214,215,216,217,218,219,220,221,222,223,224,225,226,227,228,229,230,231,232,233,234,235,236,237,238,239,240,241,242}] yes=36,no=35,missing=36
						35:leaf=-0.24000001
						36:leaf=0.280000001
			10:[Chat Conversation Opened<1] yes=17,no=18,missing=18
				17:leaf=0.272727281
				18:[Add Payment Method Success<2] yes=27,no=28,missing=28
					27:[Chat Conversation Started<8] yes=37,no=38,missing=38
						37:leaf=-0.327272743
						38:leaf=-0
					28:leaf=0.0666666701
		6:leaf=0.540983617
booster[1]:
0:[Chat Conversation Started<1] yes=1,no=2,missing=2
	1:[Wallet Opened<1] yes=3,no=4,missing=4
		3:[Sign Out<1] yes=7,no=8,missing=8
			7:leaf=-0.454889297
			8:[event_platform:{2}] yes=14,no=13,missing=14
				13:leaf=-0.30539605
				14:leaf=-0.0208393931
		4:[Account Setup Profile Skip<2] yes=9,no=10,missing=10
			9:[device_model:{0,1,2,3,4,5,6,7,8,9,10,11,12,13,14,15,16,17,18,19,20,21,22,23,24,25,26,27,28,29,30,31,32,33,34,35,36,37,38,39,40,41,42,43,44,45,46,47,48,49,50,51,52,53,54,55,56,57,58,59,60,61,62,63,64,65,66,67,68,69,70,71,72,73,74,75,76,77,78,79,80,81,82,83,84,85,86,87,88,89,90,91,92,93,94,95,96,97,98,99,100,101,102,103,104,105,106,107,108,109,110,111,112,113,114,115,116,117,118,119,120,121,122,123,124,125,126,127,128,129,130,131,132,133,134,135,136,137,138,139,140,141,142,143,144,145,146,147,148,149,150,151,152,153,154,155,156,157,158,159,160,161,162,163,164,165,166,167,168,170,171,172,173,174,175,176,177,178,179,180,181,182,183,184,185,186,187,188,189,190,191,192,193,194,195,196,197,198,199,200,201,202,203,204,205,206,207,208,209,210,211,212,213,214,215,216,217,218,219,220,221,222,223,224,225,226,227,228,229,230,231,232,233,234,235,236,237,238,239,240,242,243,244,246,248}] yes=16,no=15,missing=16
				15:[Subscription Premium Renew<1] yes=19,no=20,missing=20
					19:leaf=0.127448738
					20:leaf=-0.1959887
				16:[Account Setup Profile Skip<1] yes=21,no=22,missing=22
					21:[Sign Out<1] yes=25,no=26,missing=26
						25:leaf=-0.380053371
						26:leaf=-0.17068468
					22:[user_state:{0,1,2,3,5,6,7,8,9,10,11,12,13,14,15,16,17,18,19,20,21,22,23,24,25,26,27,28,29,30,31,32,33,34,35,36,37,38,39,40,41,42,43}] yes=28,no=27,missing=28
						27:leaf=0.0576017871
						28:leaf=-0.20942761
			10:leaf=0.167702839
	2:[Transaction Refund<1] yes=5,no=6,missing=6
		5:[Add Vehicle Success<3] yes=11,no=12,missing=12
			11:[Chat Conversation Started<9] yes=17,no=18,missing=18
				17:[device_manufacture:{19,21}] yes=24,no=23,missing=24
					23:[Account History Transaction Details<6] yes=29,no=30,missing=30
						29:leaf=0.251434535
						30:leaf=-0.0683302432
					24:[Chat Conversation Opened<1] yes=31,no=32,missing=32
						31:leaf=0.293046355
						32:leaf=-0.228743777
				18:leaf=0.404011399
			12:leaf=-0.344473839
		6:leaf=0.420314699
booster[2]:
0:[Chat Conversation Started<1] yes=1,no=2,missing=2
	1:[Wallet Opened<1] yes=3,no=4,missing=4
		3:[Sign Out<1] yes=7,no=8,missing=8
			7:leaf=-0.391681224
			8:[event_platform:{2}] yes=14,no=13,missing=14
				13:[device_model:{0,1,2,3,4,5,6,7,8,9,10,11,12,13,14,15,16,17,18,19,20,21,22,23,24,25,26,27,28,29,30,31,32,33,34,35,36,37,38,39,40,41,42,43,44,45,46,47,48,49,50,51,52,53,54,55,56,57,58,59,60,61,62,63,64,65,66,67,68,69,70,71,72,73,74,75,76,77,78,79,80,81,82,83,84,85,86,87,88,89,90,91,92,93,94,95,96,97,98,99,100,101,102,103,104,105,106,107,108,109,110,111,112,113,114,115,116,117,118,119,120,121,122,123,124,125,126,127,128,129,130,131,132,133,134,135,136,137,138,139,140,141,142,143,144,145,146,147,148,149}] yes=20,no=19,missing=20
					19:leaf=-0.295420349
					20:leaf=-0.0690982118
				14:leaf=-0.0172796044
		4:[Account Setup Profile Skip<2] yes=9,no=10,missing=10
			9:[device_model:{0,1,2,3,4,5,6,7,8,9,10,11,12,13,14,15,16,17,18,19,20,21,22,23,24,25,26,27,28,29,30,31,32,33,34,35,36,37,38,39,40,41,42,43,44,45,46,47,48,49,50,51,52,53,54,55,56,57,58,59,60,61,62,63,64,65,66,67,68,69,70,71,72,73,74,75,76,77,78,79,80,81,82,83,84,85,86,87,88,89,90,91,92,93,94,95,96,97,98,99,100,101,102,103,104,105,106,107,108,109,110,111,112,113,114,115,116,117,118,119,120,121,122,123,124,125,126,127,128,129,130,131,132,133,134,135,136,137,138,139,140,141,142,143,144,145,146,147,148,149,150,151,152,153,154,155,156,157,158,159,160,161,162,163,164,165,166,167,168,170,171,172,173,174,175,176,177,178,179,180,181,182,183,184,185,186,187,188,189,190,191,192,193,194,195,196,197,198,199,200,201,202,203,204,205,206,207,208,209,210,211,212,213,214,215,216,217,218,219,220,221,222,223,224,225,226,227,228,229,230,231,232,233,234,235,236,237,238,239,240,242,243,244,246,248}] yes=16,no=15,missing=16
				15:[Subscription Premium Renew<1] yes=21,no=22,missing=22
					21:leaf=0.10176608
					22:leaf=-0.164979041
				16:[Account Setup Profile Skip<1] yes=23,no=24,missing=24
					23:[Sign Out<1] yes=27,no=28,missing=28
						27:leaf=-0.309363216
						28:leaf=-0.134825468
					24:[user_state:{0,1,2,3,5,6,7,8,9,10,11,12,13,14,15,16,17,18,19,20,21,22,23,24,25,26,27,28,29,30,31,32,33,34,35,36,37,38,39,40,41,42,43}] yes=30,no=29,missing=30
						29:leaf=0.0480788089
						30:leaf=-0.175455943
			10:leaf=0.14200519
	2:[Transaction Refund<1] yes=5,no=6,missing=6
		5:[Add Vehicle Success<3] yes=11,no=12,missing=12
			11:[Chat Conversation Opened<1] yes=17,no=18,missing=18
				17:leaf=0.319639325
				18:[device_model:{0,1,2,3,4,5,6,7,8,9,10,11,12,13,14,15,16,17,18,19,20,21,22,23,24,25,26,27,28,29,30,31,32,33,34,35,36,37,38,39,40,41,42,43,44,45,46,47,48,49,50,51,52,53,54,55,56,57,58,59,60,61,62,63,64,65,66,67,68,69,70,71,72,73,74,75,76,77,78,79,80,81,82,83,84,85,86,87,88,89,90,91,92,93,94,95,96,97,98,99,100,101,102,103,104,105,106,107,108,109,110,111,112,113,114,115,116,117,118,119,120,121,122,123,124,125,126,127,128,129,130,131,132,133,134,135,136,137,138,139,140,141,142,143,144,145,146,147,148,149,150,151,152,153,154,155,156,157,158,159,160,161,162,163,164,165,166,167,168,169,170,171,172,173,174,175,176,177,178,179,180,181,182,183,184,185,186,187,188,189,190,191,192,193,194,195,196,197,198,199,200,201,202,203,204,205,206,207,208,209,210,240,242,244}] yes=26,no=25,missing=26
					25:[Add Vehicle Success<2] yes=31,no=32,missing=32
						31:leaf=0.230758548
						32:leaf=-0.116832897
					26:[Chat Conversation Started<8] yes=33,no=34,missing=34
						33:leaf=-0.125582278
						34:leaf=0.323435187
			12:leaf=-0.291890323
		6:leaf=0.357106864
booster[3]:
0:[Chat Conversation Started<1] yes=1,no=2,missing=2
	1:[Wallet Opened<1] yes=3,no=4,missing=4
		3:[Sign Out<1] yes=7,no=8,missing=8
			7:leaf=-0.354146361
			8:[event_platform:{2}] yes=14,no=13,missing=14
				13:[device_model:{0,1,2,3,4,5,6,7,8,9,10,11,12,13,14,15,16,17,18,19,20,21,22,23,24,25,26,27,28,29,30,31,32,33,34,35,36,37,38,39,40,41,42,43,44,45,46,47,48,49,50,51,52,53,54,55,56,57,58,59,60,61,62,63,64,65,66,67,68,69,70,71,72,73,74,75,76,77,78,79,80,81,82,83,84,85,86,87,88,89,90,91,92,93,94,95,96,97,98,99,100,101,102,103,104,105,106,107,108,109,110,111,112,113,114,115,116,117,118,119,120,121,122,123,124,125,126,127,128,129,130,131,132,133,134,135,136,137,138,139,140,141,142,143,144,145,146,147,148,149}] yes=22,no=21,missing=22
					21:leaf=-0.261330336
					22:leaf=-0.0595758334
				14:leaf=-0.0143268667
		4:[Account Setup Profile Skip<2] yes=9,no=10,missing=10
			9:[device_model:{0,1,2,3,4,5,6,7,8,9,10,11,12,13,14,15,16,17,18,19,20,21,22,23,24,25,26,27,28,29,30,31,32,33,34,35,36,37,38,39,40,41,42,43,44,45,46,47,48,49,50,51,52,53,54,55,56,57,58,59,60,61,62,63,64,65,66,67,68,69,70,71,72,73,74,75,76,77,78,79,80,81,82,83,84,85,86,87,88,89,90,91,92,93,94,95,96,97,98,99,100,101,102,103,104,105,106,107,108,109,110,111,112,113,114,115,116,117,118,119,120,121,122,123,124,125,126,127,128,129,130,131,132,133,134,135,136,137,138,139,140,141,142,143,144,145,146,147,148,149,150,151,152,153,154,155,156,157,158,159,160,161,162,163,164,165,166,167,168,170,171,172,173,174,175,176,177,178,179,180,181,182,183,184,185,186,187,188,189,190,191,192,193,194,195,196,197,198,199,200,201,202,203,204,205,206,207,208,209,210,211,212,213,214,215,216,217,218,219,220,221,222,223,224,225,226,227,228,229,230,231,232,233,234,235,236,237,238,239,240,242,243,244,246}] yes=16,no=15,missing=16
				15:[user_state:{0,1,2,3,5,6,7,8,9,10,11,12,13,14,15,16,17,18,19,20,21,22,23,24,25,26,27,28,29,30,31,32,33,43}] yes=24,no=23,missing=24
					23:leaf=0.170320675
					24:[Subscription Premium Renew<1] yes=33,no=34,missing=34
						33:leaf=0.0138144111
						34:leaf=-0.262733191
				16:[Calculator View<1] yes=25,no=26,missing=26
					25:[Order<6] yes=35,no=36,missing=36
						35:leaf=-0.0722553954
						36:leaf=-0.286928445
					26:[device_model:{0,1,2,3,4,5,6,7,8,9,10,11,12,237,244}] yes=38,no=37,missing=38
						37:leaf=-0.358128905
						38:leaf=-0.131846219
			10:leaf=0.121026017
	2:[Transaction Refund<1] yes=5,no=6,missing=6
		5:[Calculator View<1] yes=11,no=12,missing=12
			11:[Chat Conversation Opened<9] yes=17,no=18,missing=18
				17:[Wallet Opened<2] yes=27,no=28,missing=28
					27:[Subscription Premium Renew<1] yes=39,no=40,missing=40
						39:leaf=0.130701676
						40:leaf=-0.165907234
					28:leaf=0.326446176
				18:leaf=-0.184614986
			12:[Chat Conversation Opened<5] yes=19,no=20,missing=20
				19:[Add Payment Method Failed<1] yes=29,no=30,missing=30
					29:[Calculator View<3] yes=41,no=42,missing=42
						41:leaf=-0.0642858669
						42:leaf=-0.344614983
					30:leaf=0.1647221
				20:[device_model:{0,1,2,3,4,5,6,7,8,9,10,11,12,13,14,15,16,17,18,19,20,21,22,23,24,25,26,27,28,29,30,31,32,33,34,35,36,37,38,39,40,41,42,43,44,45,46,47,48,49,50,51,52,53,54,55,56,57,58,59,60,61,62,63,64,65,66,67,68,69,70,71,72,73,74,75,76,77,78,79,80,81,82,83,84,85,86,87,88,89,90,91,92,93,94,95,96,97,98,99,100,101,102,103,104,105,106,107,108,109,110,111,112,113,114,115,116,117,118,119,120,121,122,123,124,125,126,127,128,129,130,131,132,133,134,135,136,137,138,139,140,141,142,143,144,145,146,147,148,149,150,151,152}] yes=32,no=31,missing=32
					31:[Account History Transaction Details<5] yes=43,no=44,missing=44
						43:leaf=0.307166874
						44:leaf=0.0180624928
					32:leaf=-0.00709489593
		6:leaf=0.315432042
booster[4]:
0:[Chat Conversation Started<1] yes=1,no=2,missing=2
	1:[Wallet Opened<1] yes=3,no=4,missing=4
		3:[Sign Out<1] yes=7,no=8,missing=8
			7:[device_model:{0,1,2,3,4,5,6,7,8,9,10,11,12,13,14,15,16,17,18,19,20,21,22,23,24,25,26,27,28,29,30,31,32,33,34,35,36,37,38,39,40,41,42,43,44,45,46,47,48,49,50,51,52,53,54,55,56,57,58,59,60,61,62,63,64,65,66,67,68,69,70,71,72,73,74,75,76,77,78,79,80,81,82,83,84,85,86,87,88,89,90,91,92,93,94,95,96,97,98,99,100,101,102,103,104,105,106,107,108,109,110,111,112,113,114,115,116,117,118,119,120,121,122,123,124,125,126,127,128,129,130,131,132,133,134,135,136,137,138,139,140,141,142,143,144,145,146,147,148,149,150,151,152,153,154,155,156,157,158,159,160,161,162,163,164,165,166,167,168,169,170,171,172,173,174,175,176,177,178,179,180,181,182,183,184,185,186,187,188,189,190,191,192,193,194,195,196,197,198,199,200,201,202,203,204,205,206,207,208,209,210,211,212,213,214,215,216,217,218,219,220,221,222,223,224,225,226,227,228,229,230,231,232,233,234,235,236,237,238,239,240,241,242,244,245,246,248}] yes=16,no=15,missing=16
				15:leaf=-0.101987302
				16:leaf=-0.338151574
			8:[Order<2] yes=17,no=18,missing=18
				17:[user_state:{0,1,2,3,5,6,7,8,9,10,11,12,13,14,15,16,17,18,19,20,21,22,23,24,25,26,27,28,29,30,31,32,33,34,35,36,37,38,39,40,41,42,43}] yes=26,no=25,missing=26
					25:leaf=0.0918725729
					26:leaf=-0.19452329
				18:leaf=-0.254414916
		4:[Subscription Premium Renew<1] yes=9,no=10,missing=10
			9:[Add Vehicle Success<2] yes=19,no=20,missing=20
				19:[Calculator View<2] yes=27,no=28,missing=28
					27:[Account History Transaction Details<4] yes=33,no=34,missing=34
						33:leaf=0.0679616034
						34:leaf=-0.146341607
					28:leaf=-0.234158218
				20:leaf=-0.303528219
			10:[user_state:{0,1,2,3,4,5,6,7,8,9,10,11,12,13,14,43}] yes=22,no=21,missing=22
				21:leaf=-0.0166515671
				22:leaf=-0.30908522
	2:[user_state:{33,45}] yes=6,no=5,missing=6
		5:[Transaction Refund<1] yes=11,no=12,missing=12
			11:[Wallet Opened<2] yes=23,no=24,missing=24
				23:[Calculator View<2] yes=29,no=30,missing=30
					29:[Chat Conversation Started<4] yes=35,no=36,missing=36
						35:leaf=-0.00603809021
						36:leaf=0.237490982
					30:[Order<1] yes=37,no=38,missing=38
						37:leaf=-0.0513981618
						38:leaf=-0.289750993
				24:[Add Payment Method Success<3] yes=31,no=32,missing=32
					31:[Add Vehicle Success<2] yes=39,no=40,missing=40
						39:leaf=0.230217949
						40:leaf=-0.0113900509
					32:leaf=-0.222389936
			12:leaf=0.314315796
		6:[Calculator View<1] yes=13,no=14,missing=14
			13:leaf=0.116269656
			14:leaf=-0.401429445
booster[5]:
0:[Chat Conversation Started<1] yes=1,no=2,missing=2
	1:[Wallet Opened<1] yes=3,no=4,missing=4
		3:[user_state:{0,1,2,3,4,5,6,7,8,9,10,11,12,13,14,15,16,17,18,19,20,21,22,23,24,25,26,27,28,29,30,31,32,33,34,35,36,43}] yes=8,no=7,missing=8
			7:leaf=-0.0351654999
			8:leaf=-0.297527701
		4:[Wallet Opened<4] yes=9,no=10,missing=10
			9:[device_model:{0,1,2,3,4,5,6,7,8,9,10,11,12,13,14,15,16,17,18,19,20,21,22,23,24,25,26,27,28,29,30,31,32,33,34,35,36,37,38,39,40,41,42,43,44,45,46,47,48,49,50,51,52,53,54,55,56,57,58,59,60,61,62,63,64,65,66,67,68,69,70,71,72,73,74,75,76,77,78,79,80,81,82,83,84,85,86,87,88,89,90,91,92,93,94,95,96,97,98,99,100,101,102,103,104,105,106,107,108,109,110,111,112,113,114,115,116,117,118,119,120,121,122,123,124,125,126,127,128,129,130,131,132,133,134,135,136,137,138,139,140,141,142,143,144,145,146,147,148,149,150,151,152,153,154,155,156,157,158,159,160,161,162,163,164,165,166,167,168,170,171,172,173,174,175,176,177,178,179,180,181,182,183,184,185,186,187,188,189,190,191,192,193,194,195,196,197,198,199,200,201,202,203,204,205,206,207,208,209,210,211,212,213,214,215,216,217,218,219,220,221,222,223,224,225,226,227,228,229,230,231,232,233,234,235,236,237,238,239,240,241,243,244,245,246,247,248,249,250,251,252,253}] yes=16,no=15,missing=16
				15:[Order<1] yes=23,no=24,missing=24
					23:leaf=-0.0862693936
					24:leaf=0.145192385
				16:[Order<6] yes=25,no=26,missing=26
					25:[Order<4] yes=33,no=34,missing=34
						33:leaf=-0.16361323
						34:leaf=0.0949551836
					26:leaf=-0.313121915
			10:[Wallet Opened<5] yes=17,no=18,missing=18
				17:leaf=0.286814928
				18:[Order<7] yes=27,no=28,missing=28
					27:leaf=-0.00184768427
					28:leaf=-0.203126848
	2:[Transaction Refund<1] yes=5,no=6,missing=6
		5:[Chat Conversation Opened<1] yes=11,no=12,missing=12
			11:[device_model:{0,1,2,3,4,5,6,7,8,9,10,11,12,13,14,15,16,17,18,19,20,21,22,23,24,25,26,27,28,29,30,31,32,33,34}] yes=20,no=19,missing=20
				19:leaf=0.269780248
				20:leaf=0.0746029764
			12:[device_model:{0,1,2,3,4,5,6,7,8,9,10,11,12,13,14,15,16,17,18,19,20,21,22,23,24,25,26,27,28,29,30,31,32,33,34,35,36,37,38,39,40,41,42,43,44,45,46,47,48,49,50,51,52,53,54,55,56,57,58,59,60,61,62,63,64,65,66,67,68,69,70,71,72,73,74,75,76,77,78,79,80,81,82,83,84,85,86,87,88,89,90,91,92,93,94,95,96,97,98,99,100,101,102,103,104,105,106,107,108,109,110,111,112,113,114,115,116,117,118,119,120,121,122,123,124,125,126,127,128,129,130,131,132,133,134,135,136,137,138,139,140,141,142,143,144,145,146,147,148,149,150,151,152,153,154,155,156,157,158,159,160,161,162,163,164,165,166,167,168,169,170,171,172,173,174,175,176,177,178,179,180,181,182,183,184,185,186,187,188,189,190,191,192,193,194,195,196,197,198,199,200,201,202,203,204,205,206,207,208,209,210,240,242}] yes=22,no=21,missing=22
				21:[Add Vehicle Break<2] yes=29,no=30,missing=30
					29:[Add Vehicle Success<2] yes=35,no=36,missing=36
						35:leaf=0.172265708
						36:leaf=-0.161830127
					30:leaf=-0.167305633
				22:[Chat Conversation Started<7] yes=31,no=32,missing=32
					31:[Add Payment Method Success<2] yes=37,no=38,missing=38
						37:leaf=-0.215931132
						38:leaf=0.117859282
					32:[Add Vehicle Break<1] yes=39,no=40,missing=40
						39:leaf=0.194594458
						40:leaf=-0.00973482057
		6:[user_state:{0,1,2,3,5,6,7,8,10,11,12,13,14,15,16,17,18,19,20,21,22,23,24,25,26,27,28,29,30,31,32,33}] yes=14,no=13,missing=14
			13:leaf=0.286558628
			14:leaf=0.0763134211
booster[6]:
0:[Chat Conversation Started<1] yes=1,no=2,missing=2
	1:[Wallet Opened<1] yes=3,no=4,missing=4
		3:[Sign Out<1] yes=7,no=8,missing=8
			7:[device_model:{0,1,2,3,4,5,6,7,8,9,10,11,12,13,14,15,16,17,18,19,20,21,22,23,24,25,26,27,28,29,30,31,32,33,34,35,36,37,38,39,40,41,42,43,44,45,46,47,48,49,50,51,52,53,54,55,56,57,58,59,60,61,62,63,64,65,66,67,68,69,70,71,72,73,74,75,76,77,78,79,80,81,82,83,84,85,86,87,88,89,90,91,92,93,94,95,96,97,98,99,100,101,102,103,104,105,106,107,108,109,110,111,112,113,114,115,116,117,118,119,120,121,122,123,124,125,126,127,128,129,130,131,132,133,134,135,136,137,138,139,140,141,142,143,144,145,146,147,148,149,150,151,152,153,154,155,156,157,158,159,160,161,162,163,164,165,166,167,168,169,170,171,172,173,174,175,176,177,178,179,180,181,182,183,184,185,186,187,188,189,190,191,192,193,194,195,196,197,198,199,200,201,202,203,204,205,206,207,208,209,210,211,212,213,214,215,216,217,218,219,220,221,222,223,224,225,226,227,228,229,230,231,232,233,234,235,236,237,238,239,240,241,242,244,246,248}] yes=14,no=13,missing=14
				13:leaf=-0.111988135
				14:leaf=-0.307585299
			8:[Order<2] yes=15,no=16,missing=16
				15:[device_model:{0,1,2,3,4,5,6,7,8,9,10,11,12,13,14,15,16,17,18,19,20,21,22,23,24,25,26,27,28,29,30,31,32,33,34,35,36,37,38,39,40,41,42,43,44,45,46,47,48,49,50,51,52,53,54,55,56,57,58,59,60,61,62,63,64,65,66,67,68,69,70,71,72,73,74,75,76,77,78,79,80,81,82,83,84,85,86,87,88,89,90,91,92,93,94,95,96,97,98,99,100,101,102,103,104,105,106,107,108,109,110,111,112,113,114,115,116,117,118,119,120,121,122,123,124,125,126,127,128,129,130,131,132,133,134,135,136,137,138,139,140,141,142,143,144,145,146,147,148,149,150,151,152,153,154,155,156,157,158,159,160,161,162,163,164,165,166,167,168,169}] yes=22,no=21,missing=22
					21:leaf=0.085682258
					22:leaf=-0.0564986244
				16:leaf=-0.196274325
		4:[Add Vehicle Success<2] yes=9,no=10,missing=10
			9:[Subscription Premium Renew<1] yes=17,no=18,missing=18
				17:[Calculator View<2] yes=23,no=24,missing=24
					23:[Account History Transaction Details<4] yes=29,no=30,missing=30
						29:leaf=0.0779904276
						30:leaf=-0.103790924
					24:leaf=-0.184424728
				18:[event_platform:{0}] yes=26,no=25,missing=26
					25:leaf=-0.255784661
					26:leaf=0.0417654999
			10:leaf=-0.273348004
	2:[user_state:{33,45}] yes=6,no=5,missing=6
		5:[Transaction Refund<1] yes=11,no=12,missing=12
			11:[Add Vehicle Success<3] yes=19,no=20,missing=20
				19:[Chat Conversation Started<9] yes=27,no=28,missing=28
					27:[device_manufacture:{19,21}] yes=32,no=31,missing=32
						31:leaf=0.100406736
						32:leaf=-0.0758715421
					28:leaf=0.258466035
				20:leaf=-0.223059237
			12:leaf=0.274595231
		6:leaf=-0.197970122
booster[7]:
0:[Chat Conversation Started<1] yes=1,no=2,missing=2
	1:[Wallet Opened<1] yes=3,no=4,missing=4
		3:[Sign Out<1] yes=7,no=8,missing=8
			7:leaf=-0.278758854
			8:[event_platform:{2}] yes=14,no=13,missing=14
				13:[Order<1] yes=23,no=24,missing=24
					23:leaf=-0.179866835
					24:leaf=-0.0400244147
				14:leaf=0.0695278123
		4:[Account Setup Profile Skip<1] yes=9,no=10,missing=10
			9:[Email Confirmation Success<1] yes=15,no=16,missing=16
				15:[user_state:{43}] yes=26,no=25,missing=26
					25:[device_model:{0,1,2,3,4,5,6,7,8,9,10,11,12,13,14,15,16,17,18,19,20,21,22,23,24,25,26,27,28,29,30,31,32,33,34,35,36,37,38,39,40,41,42,43,44,45,46,47,48,49,50,51,52,53,54,55,56,57,58,59,60,61,62,63,64,65,66,67,68,69,70,71,72,73,74,75,76,77,78,79,80,81,82,83,84,85,86,87,88,89,90,91,92,93,94,95,96,97,98,99,100,101,102,103,104,105,106,107,108,109,110,111,112,113,114,115,116,117,118,119,120,121,122,123,124,125,126,127,128,129,130,131,132,133,134,135,136,137,138,139,140,141,142,143,144,237,239}] yes=36,no=35,missing=36
						35:leaf=0.0588693544
						36:leaf=-0.138748124
					26:[Account History Transaction Details<1] yes=37,no=38,missing=38
						37:leaf=-0.0716349185
						38:leaf=-0.235156894
				16:[device_manufacture:{0,1,2,3,4,5,6,7,8,9}] yes=28,no=27,missing=28
					27:leaf=-0.0728102848
					28:leaf=-0.279306173
			10:[Chat Conversation Opened<1] yes=17,no=18,missing=18
				17:[Wallet Opened<2] yes=29,no=30,missing=30
					29:leaf=-0.191934064
					30:leaf=0.145314321
				18:leaf=0.213269025
	2:[Transaction Refund<1] yes=5,no=6,missing=6
		5:[Chat Conversation Opened<1] yes=11,no=12,missing=12
			11:[device_model:{0,1,2,3,4,5,6,7,8,9,10,11,12,13,14,15,16,17,18,19,20,21,22,23,24,25,26,27,28,29,30,31,32,33,34}] yes=20,no=19,missing=20
				19:leaf=0.249134853
				20:leaf=0.0587306693
			12:[user_state:{0,1,2,3,4,9,43,45}] yes=22,no=21,missing=22
				21:[event_platform:{0}] yes=32,no=31,missing=32
					31:[Add Vehicle Break<1] yes=39,no=40,missing=40
						39:leaf=0.341344774
						40:leaf=-0.0587854236
					32:leaf=-0.113970339
				22:[Chat Conversation Started<8] yes=33,no=34,missing=34
					33:[Account History Transaction Details<6] yes=41,no=42,missing=42
						41:leaf=-0.0246948786
						42:leaf=-0.280385613
					34:leaf=0.204562902
		6:leaf=0.217881754
booster[8]:
0:[Transaction Refund<1] yes=1,no=2,missing=2
	1:[Chat Conversation Started<1] yes=3,no=4,missing=4
		3:[Wallet Opened<1] yes=5,no=6,missing=6
			5:[Sign Up Success<1] yes=9,no=10,missing=10
				9:leaf=-0.0439044423
				10:leaf=-0.255140662
			6:[Account Setup Profile Skip<1] yes=11,no=12,missing=12
				11:[device_model:{0,1,2,3,4,5,6,7,8,9,10,11,12,13,14,15,16,17,18,19,20,21,22,23,24,25,26,27,28,29,30,31,32,33,34,35,36,37,38,39,40,41,42,43,44,45,46,47,48,49,50,51,52,53,54,55,56,57,58,59,60,61,62,63,64,65,66,67,68,69,70,71,72,73,74,75,76,77,78,79,80,81,82,83,84,85,86,87,88,89,90,91,92,93,94,95,96,97,98,99,100,101,102,103,104,105,106,107,108,109,110,111,112,113,114,115,116,117,118,119,120,121,122,123,124,125,126,127,128,129,130,131,132,133,134,135,136,137,138,139,140,141,142,143,144,145,146,147,148,149,150,151,152,153,154,155,156,157,158,159,160,161,162,163,164,165,166,167,168,170,171,172,173,174,175,176,177,178,179,180,181,182,183,184,185,186,187,188,189,190,191,192,193,194,195,196,197,198,199,200,201,202,203,204,205,206,207,208,209,210,211,212,213,214,215,216,217,218,219,220,221,222,223,224,225,226,227,228,229,230,231,232,233,234,235,236,237,238,239,240,244}] yes=18,no=17,missing=18
					17:[Subscription Premium Renew<1] yes=25,no=26,missing=26
						25:leaf=0.0666435733
						26:leaf=-0.158431724
					18:[Sign Out<1] yes=27,no=28,missing=28
						27:leaf=-0.246979564
						28:leaf=0.00899940915
				12:[Chat Conversation Opened<1] yes=19,no=20,missing=20
					19:[Wallet Opened<2] yes=29,no=30,missing=30
						29:leaf=-0.162713885
						30:leaf=0.120872818
					20:leaf=0.183258623
		4:[Subscription Premium Renew<1] yes=7,no=8,missing=8
			7:[Add Vehicle Break<2] yes=13,no=14,missing=14
				13:[Calculator View<3] yes=21,no=22,missing=22
					21:[user_state:{0,1,2,3,5,6,7,8,10,11,12,13,14,15,16,17,18,19,20,21,22,23,24,25,26,27,28,29,30,31,32,33,34,35,36,37,38,39,40,41,42,44}] yes=32,no=31,missing=32
						31:leaf=0.0524701066
						32:leaf=0.278529584
					22:[Chat Conversation Opened<4] yes=33,no=34,missing=34
						33:leaf=-0.234888241
						34:leaf=0.091576159
				14:leaf=-0.196872026
			8:[Wallet Opened<5] yes=15,no=16,missing=16
				15:[event_platform:{0}] yes=24,no=23,missing=24
					23:[device_model:{0,1,2,3,4,5,6,7,8,9,10,11,12,13,14,15,16,17,18,19,20,21,22,23,24,25,26,27,28,29,30,31,32,33,34,35,36,37,38,39,40,41,42,43,44,45,46,47,48,49,50,51,52,53,54,55,56,57,58,59,60,61,62,63,64,65,66,67,68,69,70,71,72,73,74,75,76,77,78,79,80,81,82,83,84,85,86,87,88,89,90,91,92,93,94,95,96,97,98,99,100,101,102,103,104,105,106,107,108,109,110,111,112,113,114,115,116,117,118,119,120,121,122,123,124,125,126,127,128,129,130,131,132,133,134,135,136,137,138,139,140,141,142,143,144,145,146,147,148,149,150,151,152,153,154,155,156,157,158,159,160,161,162,163,164,165,166,167,168,169,170,171,172,173,174,175,176,177,178,179,180,181,182,183,184,185,186,187,188,189,190,191,192,193,194,195,196,197,198,199,200,201,202,203,204,205,206,207,208,209,210,211,212,213,214,215,216,217,218,219,220,221,222,223,224,225,226,227,228,229,230,231,232,233,234,235,236,237,238,239,240,241,242}] yes=36,no=35,missing=36
						35:leaf=-0.0453899913
						36:leaf=-0.289672315
					24:leaf=-0.0106747989
				16:leaf=0.164996251
	2:leaf=0.283426523
booster[9]:
0:[Transaction Refund<1] yes=1,no=2,missing=2
	1:[Chat Conversation Started<1] yes=3,no=4,missing=4
		3:[Wallet Opened<1] yes=7,no=8,missing=8
			7:[device_model:{0,1,2,3,4,5,6,7,8,9,10,11,12,13,14,15,16,17,18,19,20,21,22,23,24,25,26,27,28,29,30,31,32,33,34,35,36,37,38,39,40,41,42,43,44,45,46,47,48,49,50,51,52,53,54,55,56,57,58,59,60,61,62,63,64,65,66,67,68,69,70,71,72,73,74,75,76,77,78,79,80,81,82,83,84,85,86,87,88,89,90,91,92,93,94,95,96,97,98,99,100,101,102,103,104,105,246}] yes=14,no=13,missing=14
				13:[user_state:{0,1,2,3,4,5,6,7,8,9,43}] yes=22,no=21,missing=22
					21:leaf=-0.0781479403
					22:leaf=-0.279578537
				14:[user_state:{0,1,2,3,5,6,7,8,9,10,11,12,13,14,15,16,17,18,19,20,21,22,23,24,25,26,27,28,29,30,31,32,33,34,35,36,37,38,39,40,41,42,43,44,45,46,47,48}] yes=24,no=23,missing=24
					23:leaf=0.058177948
					24:leaf=-0.177559808
			8:[Order<6] yes=15,no=16,missing=16
				15:[Calculator View<1] yes=25,no=26,missing=26
					25:[device_manufacture:{0,1,2,3,4,5,6,7,8,9,10,11,12,13,14,15,16,17,18,19,20,22}] yes=36,no=35,missing=36
						35:leaf=0.224686369
						36:leaf=-0.0198484659
					26:[Account Setup Profile Skip<1] yes=37,no=38,missing=38
						37:leaf=-0.169703886
						38:leaf=0.0344812013
				16:leaf=-0.201447636
		4:[Wallet Opened<2] yes=9,no=10,missing=10
			9:[Chat Conversation Opened<1] yes=17,no=18,missing=18
				17:[Order<1] yes=27,no=28,missing=28
					27:leaf=0.0430348702
					28:leaf=0.190075427
				18:[device_model:{0,1,2,3,4,5,6,7,8,9,10,11,12,13,14,15,16,17,18,19,20,21,22,23,24,25,26,27,28,29,30,31,32,33,34,35,36,37,38,39,40,41,42,43,44,45,46,47,48,49,50,51,52,53,54,55,56,57,58,59,60,61,62,63,64,65,66,67,68,69,70,71,72,73,74,75,76,77,78,79,80,81,82,83,84,85,86,87,88,89,90,91,92,93,94,95,96,97,98,99,100,101,102,103,104,105,106,107,108,109,110,111,112,113,114,115,116,117,118,119,120,121,122,123,124,125,126,127,128,129,130,131,132,133,134,135,136,137,138,139,140,141,142,143,144,145,146,147,148,149,150,151,152,153,154,155,156,157,158,159,160,161,162,163,164,165,166,167,168,169,170,171,172,173,174,175,176,177,178,179,180,181,182,183,184,185,186,187,188,189,190,191,192,193,194,195,196,197,198,199,200,201,202,203,204,205,206,207,208,209,210,242}] yes=30,no=29,missing=30
					29:[Chat Conversation Opened<2] yes=39,no=40,missing=40
						39:leaf=0.240071625
						40:leaf=-0.0601630621
					30:[Chat Conversation Started<3] yes=41,no=42,missing=42
						41:leaf=-0.292750925
						42:leaf=0.0241696965
			10:[Chat Conversation Started<4] yes=19,no=20,missing=20
				19:[Chat Conversation Opened<3] yes=31,no=32,missing=32
					31:[user_state:{0,1,2,3,5,6,7,8,9,10,11,12,13,14,15,16,17,18,19,20,21,22,23,24,25,26,27,28,29,30,31,32,33,34,35,36,37,38,39,40,41,42,43,44}] yes=44,no=43,missing=44
						43:leaf=0.101866193
						44:leaf=0.316066802
					32:[Account History Transaction Details<5] yes=45,no=46,missing=46
						45:leaf=0.122818969
						46:leaf=-0.130668283
				20:[Chat Conversation Started<7] yes=33,no=34,missing=34
					33:leaf=-0.26701811
					34:leaf=0.163506016
	2:[Chat Conversation Opened<2] yes=5,no=6,missing=6
		5:leaf=0.319069386
		6:[user_state:{0,1,2,3,4,5,6,7,8,9}] yes=12,no=11,missing=12
			11:leaf=0.0172013901
			12:leaf=0.160445541
booster[10]:
0:[Transaction Refund<1] yes=1,no=2,missing=2
	1:[Chat Conversation Started<1] yes=3,no=4,missing=4
		3:[device_model:{0,1,2,3,4,5,6,7,8,9,10,11,12,13,14,15,16,17,18,19,20,21,22,23,24,25,26,27,28,29,30,31,32,33,34,35,36,37,38,39,40,41,42,43,44,45,46,47,48,49,50,51,52,53,54,55,56,57,58,59,60,61,62,63,64,65,66,67,68,69,70,71,72,73,74,75,76,77,78,79,80,81,82,83,84,85,86,87,88,89,90,91,92,93,94,95,96,97,98,99,100,101,102,103,104,105,106,107,108,109,110,111,112,113,114,115,116,117,118,119,120,121,122,123,124,125,126,127,128,129,130,131,132,133,134,135,136,137,138,139,140,141,142,143,144,145,146,147,148,149,150,151,152,153,154,155,156,157,158,159,160,161,162,163,164,165,166,167,168,170,171,172,173,174,175,176,177,178,179,180,181,182,183,184,185,186,187,188,189,190,191,192,193,194,195,196,197,198,199,200,201,202,203,204,205,206,207,208,209,210,211,212,213,214,215,216,217,218,219,220,221,222,223,224,225,226,227,228,229,230,231,232,233,234,235,236,237,238,239,240,242,244,246,247,248,249,250,251,252,253,254,255}] yes=8,no=7,missing=8
			7:[Order<1] yes=11,no=12,missing=12
				11:[user_state:{0,1,2,3,4,5,6,7,8,9,10,11,12,13,14,15,16,17,18,19,20,21,22,23,24,25,26,27,28,29,30,31,32,33,34,35,36}] yes=20,no=19,missing=20
					19:leaf=-0.0238954369
					20:leaf=0.30153662
				12:leaf=-0.108554929
			8:[Wallet Opened<2] yes=13,no=14,missing=14
				13:[Add Payment Method Success<2] yes=21,no=22,missing=22
					21:[Sign Out<1] yes=31,no=32,missing=32
						31:leaf=-0.263376385
						32:leaf=-0.0282526743
					22:leaf=0.124657646
				14:[Order<5] yes=23,no=24,missing=24
					23:[user_state:{4}] yes=34,no=33,missing=34
						33:leaf=0.177462399
						34:leaf=-0.0221326929
					24:leaf=-0.227212995
		4:[Chat Conversation Opened<2] yes=9,no=10,missing=10
			9:[device_model:{0,1,2,3,4,5,6,7,8,9,10,11,12,13,14,15,16,17,18,19,20,21,22,23,24,25,26,27,28,29,30,31,32,33,34,35,36,37,38,39,40,41,42,43,44,45,46,47,48,49,50,51,52,53,54,55,56,57,58,59,60,61,62,63,64,65,66,67,68,69,70,71,72,73,74,75,76,77,78,79,80,81,82,83,84,85,86,87,88,89,90,91,92,93,94,95,96,97,98,99,100,101,102,103,104,105,106,107,108,109,110,111,112,113,114,115,116,117,118,119,120,121,122,123,124,125,126,127,128,129,130,131,132,133,134,135,136,137,138,139,140,141,142,143,144,145,146,147,148,149,150,151,152,153,154,155,156,157,158,159,160,161,162,163,164,165,166,167,168,169,170,171,172,173,174,175,176,177,178,179,180,181,182,183,184,185,186,187,188,189,190,191,192,193,194,195,196,197,198,199,200,201,202,203,204,205,206,207,208,209,210,211,212,213,214,215,216,217,218,219,220,221,222,223,224,225,226,227,228,229,230,231,232,233,234,235,236,237,238,239}] yes=16,no=15,missing=16
				15:leaf=0.268191367
				16:[Wallet Opened<1] yes=25,no=26,missing=26
					25:[Chat Conversation Opened<1] yes=35,no=36,missing=36
						35:leaf=0.0373660326
						36:leaf=-0.229323134
					26:[device_model:{0,1,2,3,4,5,6,7,8,9,10,11,12,13,14,15,16,17,18,19,20,21,22,23,24,25,26,27,28,29,30,31,32,33,34,35,36,37,38,39,40,41,42,43,44,45,46,47,48,49,50,51,52,53,54,55,56,57,58,59,60,61,62,63,64,65,66,67,68,69,70,71,72,73,74,75,76,77,78,79,80,81,82,83,84,85,86,87,88,89,90,91,92,93,94,95,96,97,98,99,100,101,102,103,104,105,106,107,108,109,110,111,112,113,114,115,116,117,118,119,120,121,122,123,124,125,126,127,128,129,130,131,132,133,134,135,136,137,138,139,140,141,142,143}] yes=38,no=37,missing=38
						37:leaf=-0.0142074302
						38:leaf=0.223508045
			10:[device_model:{0,1,2,3,4,5,6,7,8,9,10,11,12,13,14,15,16,17,18,19,20,21,22,23,24,25,26,27,28,29,30,31,32,33,34,35,36,37,38,39,40,41,42,43,44,45,46,47,48,49,50,51,52,53,54,55,56,57,58,59,60,61,62,63,64,65,66,67,68,69,70,71,72,73,74,75,76,77,78,79,80,81,82,83,84,85,86,87,88,89,90,91,92,93,94,95,96,97,98,99,100,101,102,103,104,105,106,107,108,109,110,111,112,113,114,115,116,117,118,119,120,121,122,123,124,125,126,127,128,129,130,131,132,133,134,135,136,137,138,139,140,141,142,143,144,145,146,147,148,149,150,151,152,153,154,155,156,157,158,159,160,161,162,163,164,165,166,167,168,169,170,171,172,173,174,175,176,177,178,179,180,181,182,183,184,185,186,187,188,189,190,191,192,193,194,195,196,197,198,199,200,201,202,203,204,205,206,207,208,209,210,211,212,213,214,215,216,217,218,219,220,221,222,223,224,225,226,227,228,229,230,231,232,233,234,235,238,240,241,243,244,245,246,247,248,249,250,251,252,253}] yes=18,no=17,missing=18
				17:[Subscription Premium Renew<1] yes=27,no=28,missing=28
					27:[Calculator View<2] yes=39,no=40,missing=40
						39:leaf=0.266063839
						40:leaf=-0.0930370167
					28:leaf=-0.101702273
				18:[Chat Conversation Started<7] yes=29,no=30,missing=30
					29:[user_state:{4,9}] yes=42,no=41,missing=42
						41:leaf=0.00117788278
						42:leaf=-0.178080693
					30:[Add Vehicle Break<1] yes=43,no=44,missing=44
						43:leaf=0.128955156
						44:leaf=-0.0394566283
	2:[user_state:{0,1,2,3,4,5,6,7,8,9,10,11,12,13,14,15,16,17,18,19,20,21,22,23,24,25,26,27,28,29,30}] yes=6,no=5,missing=6
		5:leaf=0.0628824607
		6:leaf=0.27377972
booster[11]:
0:[Transaction Refund<1] yes=1,no=2,missing=2
	1:[device_model:{0,1,2,3,4,5,6,7,8,9,10,11,12,13,14,15,16,17,18,19,20,21,22,23,24,25,26,27,28,29,30,31,32,33,34,35,36,37,38,39,40,41,42,43,44,45,46,47,48,49,50,51,52,53,54,55,56,57,58,59,60,61,62,63,64,65,66,67,68,69,70,71,72,73,74,75,76,77,78,79,80,81,82,83,84,85,86,87,88,89,90,91,92,93,94,95,96,97,98,99,100,101,102,103,165,236,237,240,244,246,248}] yes=4,no=3,missing=4
		3:[device_model:{0,1,2,3,4,5,6,7,8,9,10,11,12,13,14,15,16,17,18,19,20,21,22,23,24,25,26,27,28,29,30,31,32,33,34,35,36,37,38,39,40,41,42,43,44,45,46,47,48,49,50,51,52,53,54,55,56,57,58,59,60,61,62,63,64,65,66,67,68,69,70,71,72,73,74,75,76,77,78,79,80,81,82,83,84,85,86,87,88,89,90,91,92,93,94,95,96,97,98,99,100,101,102,103,104,105,106,107,108,109,110,111,112,113,114,115,116,117,118,119,120,121,122,123,124,125,126,127,128,129,130,131,133,134,135,136,137,138,139,140,141,142,143}] yes=8,no=7,missing=8
			7:[Chat Conversation Opened<4] yes=11,no=12,missing=12
				11:[device_model:{0,1,2,3,4,5,6,7,8,9,10,11,12,13,14,15,16,17,18,19,20,21,22,23,24,25,26,27,28,29,30,31,32,33,34,35,36,37,38,39,40,41,42,43,44,45,46,47,48,49,50,51,52,53,54,55,56,57,58,59,60,61,62,63,64,65,66,67,68,69,70,71,72,73,74,75,76,77,78,79,80,81,82,83,84,85,86,87,88,89,90,91,92,93,94,95,96,97,98,99,100,101,102,103,104,105,106,107,108,109,110,111,112,113,114,115,116,117,118,119,120,121,122,123,124,125,126,127,128,129,130,131,132,133,134,135,136,137,138,139,140,141,142,143,144,145,146,147,148,149,150,151,152,153,154,155,156,157,158,159,160,161,162,163,164,165,166,167,168,170,171,172,173,174,175,176,177,178,179,180,181,182,183,184,185,186,187,188,189,190,191,192,193,194,195,196,197,198,199,200,201,202,203,204,205,206,207,208,209,210,211,212,213,214,215,216,217,218,219,220,221,222,223,224,225,226,227,228,229,230,231,232,233,234,235,236,237,238,240,242,244,246,247,248,249,250,251,252,253,254}] yes=16,no=15,missing=16
					15:[user_state:{0,1,2,3,5,6,7,8,9,43}] yes=24,no=23,missing=24
						23:leaf=0.131802574
						24:leaf=-0.0762009695
					16:[Wallet Opened<2] yes=25,no=26,missing=26
						25:leaf=-0.16343087
						26:leaf=0.0215590857
				12:[Chat Conversation Opened<9] yes=17,no=18,missing=18
					17:[device_model:{0,1,2,3,4,5,6,7,8,9,10,11,12,13,14,15,16,17,18,19,20,21,22,23,24,25,26,27,28,29,30,31,32,33,34,35,36,37,38,39,40,41,42,43,44,45,46,47,48,49,50,51,52,53,54,55,56,57,58,59,60,61,62,63,64,65,66,67,68,69,70,71,72,73,74,75,76,77,78,79,80,81,82,83,84,85,86,87,88,89,90,91,92,93,94,95,96,97,98,99,100,101,102,103,104,105,106,107,108,109,110,111,112,113,114,115,116,117,118,119,120,121,122,123,124,125,126,127,128,129,130,131,132,133,134,135,136,137,138,139,140,141,142,143,144,145,146,147,148,149,150,151,152,153,154,155,156,157,158,159,160,161,162,163,164,165,166,167,168,169,170,171,172,173,174,175,176,177,178,179,180,181,182,183,184,185,186,187,188,189,190,191,192,193,194,195,196,197,198,199,200,201,202,203,204,205,206,207,208,209,210,211,212,213,214,215,216,217,218,219,220,221,222,223,224,225,226,227,228,229,230,231,232,233,234,235,236,237,238,239,240,241,242}] yes=28,no=27,missing=28
						27:leaf=-0.0402200781
						28:leaf=0.293485016
					18:leaf=-0.101124078
			8:leaf=0.260477096
		4:[device_manufacture:{0,1,2,3,4,5,6,7,8,9,10,19,21}] yes=10,no=9,missing=10
			9:leaf=0.16773279
			10:[Account Setup Profile Skip<1] yes=13,no=14,missing=14
				13:[Sign Up Success<1] yes=19,no=20,missing=20
					19:leaf=0.122342736
					20:[Add Payment Method Failed<1] yes=29,no=30,missing=30
						29:leaf=-0.184444755
						30:leaf=0.0716074184
				14:[Chat Conversation Opened<1] yes=21,no=22,missing=22
					21:leaf=-0.0691201687
					22:leaf=0.173386693
	2:[Calculator View<1] yes=5,no=6,missing=6
		5:leaf=0.255107522
		6:leaf=0.0459951982
booster[12]:
0:[user_state:{4,30,33,43,45}] yes=2,no=1,missing=2
	1:[Wallet Opened<2] yes=3,no=4,missing=4
		3:[Wallet Opened<1] yes=7,no=8,missing=8
			7:[Chat Conversation Started<1] yes=15,no=16,missing=16
				15:leaf=-0.0647771135
				16:leaf=0.191244423
			8:[device_model:{0,1,2,3,4,5,6,7,8,9,10,11,12,13,14,15,16,17,18,19,20,21,22,23,24,25,26,27,28,29,30,31,32,33,34,35,36,37,38,39,40,41,42,43,44,45,46,47,48,49,50,51,52,53,54,55,56,57,58,59,60,61,62,63,64,65,66,67,68,69,70,71,72,73,74,75,76,77,78,79,80,81,82,83,84,85,86,87,88,89,90,91,92,93,94,95,96,97,98,99,100,101,102,103,104,105,106,107,108,109,110,111,112,113,114,115,116,117,118,119,120,121,122,123,124,125,126,127,128,129,130,131,132,133,134,135,136,137,138,139,140,141,142,143,144,145,146,147,148,149,150,151,152,153,154,155,156,157,158,159,160,161,162,163,164,165,166,167,168,169,170,171,172,173,174,175,176,177,178,179,180,181,182,183,184,185,186,187,188,189,190,191,192,193,194,195,196,197,198,199,200,201,202,203,204,205,206,207,208,209,210,211,212,213,214,215,216,217,218,219,220,221,222,223,224,225,226,227,228}] yes=18,no=17,missing=18
				17:leaf=-0.235160857
				18:leaf=-0.0662775487
		4:[Chat Conversation Started<3] yes=9,no=10,missing=10
			9:[Email Confirmation Success<1] yes=19,no=20,missing=20
				19:[Account History Transaction Details<5] yes=29,no=30,missing=30
					29:leaf=0.341387808
					30:leaf=0.0954920352
				20:leaf=0.00730598345
			10:leaf=-0.0398141146
	2:[Chat Conversation Started<2] yes=5,no=6,missing=6
		5:[device_model:{0,1,2,3,4,5,6,7,8,9,10,11,12,13,14,15,16,17,18,19,20,21,22,23,24,25,26,27,28,29,30,31,32,33,34,35,36,37,38,39,40,41,42,43,44,45,46,47,48,49,50,51,52,53,54,55,56,57,58,59,60,61,62,63,64,65,66,67,68,69,70,71,72,73,74,75,76,77,78,79,80,81,82,83,84,85,86,87,88,89,90,91,92,93,94,95,96,97,98,99,100,101,102,103,104,105,106,107,108,109,110,111,112,113,114,115,116,117,118,119,120,121,122,123,124,125,126,127,128,129,130,131,132,133,134,135,136,137,138,139,140,141,142,143,144,145,146,147,148,149,150,151,152,153,154,155,156,157,158,159,160,161,162,163,164,165,166,167,168,169,170,171,172,173,174,175,176,177,178,236,241,242,243,244,246,248}] yes=12,no=11,missing=12
			11:[Chat Conversation Started<1] yes=21,no=22,missing=22
				21:[Account Setup Profile Skip<1] yes=31,no=32,missing=32
					31:[user_state:{0,1,2,3,4,5,6,7,8,9,10,11,12,13,14,15,16,17,18,19,20,21,22,23,24,25,26,27,28,29,30,43}] yes=44,no=43,missing=44
						43:leaf=0.000740386546
						44:leaf=-0.197749406
					32:leaf=0.13216266
				22:[Add Vehicle Break<1] yes=33,no=34,missing=34
					33:[device_model:{0,1,2,3,4,5,6,7,8,9,10,11,12,13,14,15,16,17,18,19,20,21,22,23,24,25,26,27,28,29,30,31,32,33,34,35,36,37,38,39,40,41,42,43,44,45,46,47,48,49,50,51,52,53,54,55,56,57,58,59,60,61,62,63,64,65,66,67,68,69,70,71,72,73,74,75,76,77,78,79,80,81,82,83,84,85,86,87,88,89,90,91,92,93,94,95,96,97,98,99,100,101,102,103,104,105,106,107,108,109,110,111,112,113,114,115,116,117,118,119,120,121,122,123,124,125,126,127,128,129,130,131,132,133,134,135,136,137,138,139,140,141,142,143,144,145,146,147,148,149,150,151,152,153,154,155,156,157,158,159,160,161,162,163,164,165,166,167,168,169,170,171,172,173,174,175,176,177,178,179,180,181,182,183,184,185,186,187,188,189,190,191,192,193,194,195,196,197,198,199,200,201,202,203,204,205,206,207,208,209,210,211,212,213,214,215,216,217,218,219,220,221,222,223,224,225,226,227,228,229,230,231,232,233,234,235,236,238,239,240,241,242,243,244,245,246,247}] yes=46,no=45,missing=46
						45:leaf=0.260637492
						46:leaf=0.000945752196
					34:leaf=-0.0590521321
			12:[Calculator View<1] yes=23,no=24,missing=24
				23:[Wallet Opened<1] yes=35,no=36,missing=36
					35:[device_model:{0,1,2,3,4,5,6,7,8,9,10,11,12,13,14,15,16,17,18,19,20,21,22,23,24,25,26,27,28,29,30,31,32,33,34,35,36,37,38,39,40,41,42,43,44,45,46,47,48,49,50,51,52,53,54,55,56,57,58,59,60,61,62,63,64,65,66,67,68,69,70,71,72,73,74,75,76,77,78,79,80,81,82,83,84,85,86,87,88,89,90,91,92,93,94,95,96,97,98,99,100,101,102,103,104,105,106,107,108,109,110,111,112,113,114,115,116,117,118,119,120,121,122,123,124,125,126,127,128,129,130,131,132,133,134,135,136,137,138,139,140,141,142,143,144,145,146,147,148,149,150,151,152,153,154,155,156,157,158,159,160,161,162,163,164,165,166,167,168,169,170,171,172,173,174,175,176,177,178,179,180,181,182,183,184,185,186,187,188,189,190,191,192,193,194,195,196,197,198,199,200,201,202,203,204,205,206,207,208,209,210,211,212,213,214,215,216,217,218,219,220,221,222,223,224,225,226,227,228,229,230,231,232,233,234,235,236,237,238,239,240,241,242,243,244,245,247,248}] yes=48,no=47,missing=48
						47:leaf=0.111275271
						48:leaf=-0.167509839
					36:[Wallet Opened<2] yes=49,no=50,missing=50
						49:leaf=0.151183516
						50:leaf=-0.0643619522
				24:[Add Payment Method Failed<1] yes=37,no=38,missing=38
					37:[device_model:{0,1,2,3,4,5,6,7,8,9,10,11,12,13,14,15,16,17,18,19,20,21,22,23,24,25,26,27,28,29,30,31,32,33,34,35,36,37,38,39,40,41,42,43,44,45,46,47,48,49,50,51,52,53,54,55,56,57,58,59,60,61,62,63,64,65,66,67,68,69,70,71,72,73,74,75,76,77,78,79,80,81,82,83,84,85,86,87,88,89,90,91,92,93,94,95,96,97,98,99,100,101,102,103,104,105,106,107,108,109,110,111,112,113,114,115,116,117,118,119,120,121,122,123,124,125,126,127,128,129,130,131,132,133,134,135,136,137,138,139,140,141,142,143}] yes=52,no=51,missing=52
						51:leaf=-0.302729815
						52:leaf=0.0500018261
					38:leaf=0.0468525328
		6:[Account History Transaction Details<2] yes=13,no=14,missing=14
			13:[Sign Out<1] yes=25,no=26,missing=26
				25:leaf=0.230647832
				26:leaf=-0.0316814631
			14:[Wallet Opened<3] yes=27,no=28,missing=28
				27:[device_model:{0,1,2,3,4,5,6,7,8,9,10,11,12,13,14,15,16,17,18,19,20,21,22,23,24,25,26,27,28,29,30,31,32,33,34,35,36,37,38,39,40,41,42,43,44,45,46,47,48,49,50,51,52,53,54,55,56,57,58,59,60,61,62,63,64,65,66,67,68,69,70,71,72,73,74,75,76,77,78,79,80,81,82,83,84,85,86,87,88,89,90,91,92,93,94,95,96,97,98,99,100,101,102,103,104,105,106,107,108,109,110,111,112,113,114,115,116,117,118,119,120,121,122,123,124,125,126,127,128,129,130,131,132,133,134,135,136}] yes=40,no=39,missing=40
					39:leaf=-0.1707737
					40:leaf=0.066455029
				28:[Sign Out<1] yes=41,no=42,missing=42
					41:leaf=-0.0275732465
					42:leaf=0.176281601
booster[13]:
0:[Transaction Refund<1] yes=1,no=2,missing=2
	1:[Chat Conversation Started<1] yes=3,no=4,missing=4
		3:[device_model:{0,1,2,3,4,5,6,7,8,9,10,11,12,13,14,15,16,17,18,19,20,21,22,23,24,25,26,27,28,29,30,31,32,33,34,35,36,37,38,39,40,41,42,43,44,45,46,47,48,49,50,51,52,53,54,55,56,57,58,59,60,61,62,63,64,65,66,67,68,69,70,71,72,73,74,75,76,77,78,79,80,81,82,83,84,85,86,87,88,89,90,91,92,93,94,95,96,97,98,99,100,101,102,103,104,105,106,107,108,109,110,111,112,113,114,115,116,117,118,119,120,121,122,123,124,125,126,127,128,129,130,131,132,133,134,135,136,137,138,139,140,141,142,143,144,145,146,147,148,149,150,151,152,153,154,155,156,157,158,159,160,161,162,163,164,165,166,167,168,170,171,172,173,174,175,176,177,178,179,180,181,182,183,184,185,186,187,188,189,190,191,192,193,194,195,196,197,198,199,200,201,202,203,204,205,206,207,208,209,210,211,212,213,214,215,216,217,218,219,220,221,222,223,224,225,226,227,228,229,230,231,232,233,234,235,236,237,238,240,244,246}] yes=8,no=7,missing=8
			7:[Account History Transaction Details<2] yes=11,no=12,missing=12
				11:[Order<1] yes=19,no=20,missing=20
					19:[Subscription Premium Renew<1] yes=33,no=34,missing=34
						33:leaf=-0.0799178854
						34:leaf=0.153512999
					20:leaf=-0.187162519
				12:[user_state:{0,1,2,3,5,6,7,8,9,10,11,12,13,14,15,16,17,18,19,20,21,22,23,24,25,26,27,28,29,30,31,32,33,34,35,36,37,38,39,40,41,42,43,44,45}] yes=22,no=21,missing=22
					21:leaf=0.255568832
					22:leaf=0.0286717582
			8:[Sign Out<1] yes=13,no=14,missing=14
				13:[Chat Conversation Opened<1] yes=23,no=24,missing=24
					23:[Account Setup Profile Skip<1] yes=35,no=36,missing=36
						35:leaf=-0.27635625
						36:leaf=-0.103384331
					24:leaf=0.0445146896
				14:[device_model:{0,1,2,3,4,5,6,7,8,9,10,11,12,13,14,15,16,17,18,19,20,21,22,23,24,25,26,27,28,29,30,31,32,33,34,35,36,37,38,39,40,41,42,43,44,45,46,47,48,49,50,51,52,53,54,55,56,57,58,59,60,61,62,63,64,65,66,67,68,69,70,71,72,73,74,75,76,77,78,79,80,81,82,83,84,85,86,87,88,89,90,91,92,93,94,95,96,97,98,99,100,101,102,103,104,105,106,107,108,109,110,111,112,113,114,115,116,117,118,119,120,121,122,123,124,125,126,127,128,129,130,131,132}] yes=26,no=25,missing=26
					25:[Order<1] yes=37,no=38,missing=38
						37:leaf=-0.0023247425
						38:leaf=-0.171260029
					26:leaf=0.259325892
		4:[device_model:{0,1,2,3,4,5,6,7,8,9,10,11,12,13,14,15,16,17,18,19,20,21,22,23,24,25,26,27,28,29,30,31,32,33,34,35,36,37,38,39,40,41,42,43,44,45,46,47,48,49,50,51,52,53,54,55,56,57,58,59,60,61,62,63,64,65,66,67,68,69,70,71,72,73,74,75,76,77,78,79,80,81,82,83,84,85,86,87,88,89,90,91,92,93,94,95,96,97,98,99,100,101,102,103,104,105,106,107,108,109,110,111,112,113,114,115,116,117,118,119,120,121,122,123,124,125,126,127,128,129,130,131,132,133,134,135,136,137,138,139,140,141,142,143,144,145,146,147,148,149,150,151,152,153,154,155,156,157,158,159,160,161,162,163,164,165,166,167,168,169,170,171,172,173,174,175,176,177,178,240,242}] yes=10,no=9,missing=10
			9:[Account History Transaction Details<6] yes=15,no=16,missing=16
				15:[Account History Transaction Details<1] yes=27,no=28,missing=28
					27:[Chat Conversation Opened<4] yes=39,no=40,missing=40
						39:leaf=0.089347735
						40:leaf=-0.173368767
					28:[Subscription Premium Renew<1] yes=41,no=42,missing=42
						41:leaf=0.209952086
						42:leaf=-0.0166391898
				16:leaf=-0.0659125969
			10:[Chat Conversation Started<2] yes=17,no=18,missing=18
				17:[user_state:{0,1,2,3,4,5,6,7,8,9,43}] yes=30,no=29,missing=30
					29:leaf=0.0842553973
					30:[Order<3] yes=43,no=44,missing=44
						43:leaf=-0.269587785
						44:leaf=0.0366770104
				18:[Chat Conversation Opened<3] yes=31,no=32,missing=32
					31:[device_model:{0,1,2,3,4,5,6,7,8,9,10,11,12,13,14,15,16,17,18,19,20,21,22,23,24,25,26,27,28,29,30,31,32,33,34,35,36,37,38,39,40,41,42,43,44,45,46,47,48,49,50,51,52,53,54,55,56,57,58,59,60,61,62,63,64,65,66,67,68,69,70,71,72,73,74,75,76,77,78,79,80,81,82,83,84,85,86,87,88,89,90,91,92,93,94,95,96,97,98,99,100,101,102,103,104,105,106,107,108,109,110,111,112,113,114,115,116,117,118,119,120,121,122,123,124,125,126,127,128,129,130,131,132,133,134,135,136,137,138,139,140,141,142}] yes=46,no=45,missing=46
						45:leaf=-0.0305115897
						46:leaf=0.285452843
					32:[Chat Conversation Started<12] yes=47,no=48,missing=48
						47:leaf=-0.168557197
						48:leaf=0.12594749
	2:[Calculator View<1] yes=5,no=6,missing=6
		5:leaf=0.234741434
		6:leaf=0.0432874225
booster[14]:
0:[user_state:{33}] yes=2,no=1,missing=2
	1:[Transaction Refund<1] yes=3,no=4,missing=4
		3:[Order<9] yes=5,no=6,missing=6
			5:[device_model:{0,1,2,3,4,5,6,7,8,9,10,11,12,13,14,15,16,17,18,19,20,21,22,23,24,25,26,27,28,29,30,31,32,33,34,35,36,37,38,39,40,41,42,43,44,45,46,47,48,49,50,51,52,53,54,55,56,57,58,59,60,61,62,63,64,65,66,67,68,69,70,71,72,73,74,75,76,77,78,79,80,81,82,83,84,85,86,87,88,89,90,91,92,93,94,95,96,97,98,99,100,101,102,103,165,237,244,248}] yes=8,no=7,missing=8
				7:[device_model:{0,1,2,3,4,5,6,7,8,9,10,11,12,13,14,15,16,17,18,19,20,21,22,23,24,25,26,27,28,29,30,31,32,33,34,35,36,37,38,39,40,41,42,43,44,45,46,47,48,49,50,51,52,53,54,55,56,57,58,59,60,61,62,63,64,65,66,67,68,69,70,71,72,73,74,75,76,77,78,79,80,81,82,83,84,85,86,87,88,89,90,91,92,93,94,95,96,97,98,99,100,101,102,103,104,105,106,107,108,109,110,111,112,113,114,115,116,117,118,119,120,121,122,123,124,125,126,127,128,129,130,131,132,133,134,135,136,137,138,139,140,141,142,143}] yes=12,no=11,missing=12
					11:[Chat Conversation Opened<4] yes=17,no=18,missing=18
						17:leaf=-0.00745356362
						18:leaf=0.119019799
					12:leaf=0.202332124
				8:[Wallet Opened<4] yes=13,no=14,missing=14
					13:[Account History Transaction Details<1] yes=19,no=20,missing=20
						19:leaf=-0.186979681
						20:leaf=-0.0155052831
					14:[Calculator View<3] yes=21,no=22,missing=22
						21:leaf=0.188427225
						22:leaf=-0.0540610589
			6:[Add Payment Method Success<2] yes=9,no=10,missing=10
				9:[Chat Conversation Started<1] yes=15,no=16,missing=16
					15:leaf=-0.229422852
					16:leaf=-0.0758018419
				10:leaf=0.0136721572
		4:leaf=0.247635007
	2:leaf=-0.239817783
booster[15]:
0:[user_state:{33,45}] yes=2,no=1,missing=2
	1:[Add Vehicle Success<2] yes=3,no=4,missing=4
		3:[Add Vehicle Break<2] yes=7,no=8,missing=8
			7:[device_model:{0,1,2,3,4,5,6,7,8,9,10,11,12,13,14,15,16,17,18,19,20,21,22,23,24,25,26,27,28,29,30,31,32,33,34,35,36,37,38,39,40,41,42,43,44,45,46,47,48,49,50,51,52,53,54,55,56,57,58,59,60,61,62,63,64,65,66,67,68,69,70,71,72,73,74,75,76,77,78,79,80,81,82,83,84,85,86,87,88,89,90,91,92,93,94,95,96,97,98,99,100,101,102,103,104,105,106,107,108,109,110,111,112,113,114,115,116,117,118,119,120,121,122,123,124,125,126,127,128,129,130,131,132,133,134,135,136,137,138,139,140,141,142,143,144,145,146,147,148,149,150,151,152,153,154,155,156,157,158,159,160,161,162,163,164,166,167,168,169,170,171,172,173,174,175,176,177,178,179,180,181,182,183,184,185,186,187,188,189,190,191,192,193,194,195,196,197,198,199,200,201,202,203,204,205,206,207,208,209,210,211,212,213,214,215,216,217,218,219,220,221,222,223,224,225,226,227,228,229,230,231,232,233,234,235,238,240,241,242,244,245,246,247,248,249,250,251,252,253,254,255,256,257,258,259,260,261,262,263,264,265,266,267,268,269,270,271,272,273,274,275,276,277,278,279,280,281,282,283}] yes=12,no=11,missing=12
				11:[Account History Transaction Details<1] yes=15,no=16,missing=16
					15:[user_state:{0,1,2,3,4,5,6,7,8,9}] yes=20,no=19,missing=20
						19:leaf=0.162173137
						20:leaf=-0.0593242534
					16:[user_state:{0,1,2,3,5,6,7,8,9,10,11,12,13,14}] yes=22,no=21,missing=22
						21:leaf=0.257665128
						22:leaf=-0.0595701598
				12:[Subscription Premium Renew<1] yes=17,no=18,missing=18
					17:[user_state:{43}] yes=24,no=23,missing=24
						23:leaf=0.0795778334
						24:leaf=-0.0269531794
					18:[Wallet Opened<4] yes=25,no=26,missing=26
						25:leaf=-0.160915375
						26:leaf=0.0679539293
			8:leaf=-0.172919556
		4:[device_manufacture:{1,21}] yes=10,no=9,missing=10
			9:leaf=0.104741409
			10:[Add Vehicle Break<1] yes=13,no=14,missing=14
				13:leaf=-0.234788164
				14:leaf=-0.0721657574
	2:[Chat Conversation Opened<1] yes=5,no=6,missing=6
		5:leaf=-0.00725168129
		6:leaf=-0.230669782
booster[16]:
0:[Add Vehicle Success<3] yes=1,no=2,missing=2
	1:[user_state:{33,45}] yes=4,no=3,missing=4
		3:[Transaction Refund<1] yes=5,no=6,missing=6
			5:[Order<9] yes=9,no=10,missing=10
				9:[Wallet Opened<2] yes=11,no=12,missing=12
					11:[device_model:{0,1,2,3,4,5,6,7,8,9,10,11,12,13,14,15,16,17,18,19,20,21,22,23,24,25,26,27,28,29,30,31,32,33,34,35,36,37,38,39,40,41,42,43,44,45,46,47,48,49,50,51,52,53,54,55,56,57,58,59,60,61,62,63,64,65,66,67,68,69,70,71,72,73,74,75,76,77,78,79,80,81,82,83,84,85,86,87,88,89,90,91,92,93,94,95,96,97,98,99,100,101,102,103,104,105,106,107,108,109,110,111,112,113,114,115,116,117,118,119,120,121,122,123,124,125,126,127,128,129,130,131,132,133,134,135,136,137,138,139,140,141,142,143,144,145,146,147,148,149,150,151,152,153,154,155,156,157,158,159,160,161,162,163,164,165,166,167,168,169,170,171,172,173,174,175,176,177,178,179,180,181,182,183,184,185,186,187,188,189,190,191,192,193,194,195,196,197,198,199,200,201,202,203,204,205,206,207,208,209,210,211,212,213,214,215,216,217,218,219,220,221,222,223,224,225,226,227,228,229,230,231,232,233,234,235,236,237,238,240,241,242,245,247,248,249,250,251,252,253,254}] yes=16,no=15,missing=16
						15:leaf=0.11265377
						16:leaf=-0.0534349978
					12:[user_state:{43}] yes=18,no=17,missing=18
						17:leaf=0.116197355
						18:leaf=-0.0405478664
				10:[Add Payment Method Success<2] yes=13,no=14,missing=14
					13:[Chat Conversation Started<1] yes=19,no=20,missing=20
						19:leaf=-0.208701417
						20:leaf=-0.032735683
					14:leaf=0.0295647196
			6:leaf=0.203382626
		4:[Account History Transaction Details<1] yes=7,no=8,missing=8
			7:leaf=-0.00454624882
			8:leaf=-0.188314483
	2:leaf=-0.204602018
booster[17]:
0:[device_model:{0,1,2,3,4,5,6,7,8,9,10,11,12,13,14,15,16,17,18,19,20,21,22,23,24,25,26,27,28,29,30,31,32,33,34,35,36,37,38,39,40,41,42,43,44,45,46,47,48,49,50,51,52,53,54,55,56,57,58,59,60,61,62,63,64,65,66,67,68,69,70,71,72,73,74,75,76,77,78,79,80,81,82,83,84,85,86,87,88,89,90,91,92,93,94,95,96,97,98,99,100,101,102,103,165,236,240,244,246,248}] yes=2,no=1,missing=2
	1:[device_model:{0,1,2,3,4,5,6,7,8,9,10,11,12,13,14,15,16,17,18,19,20,21,22,23,24,25,26,27,28,29,30,31,32,33,34,35,36,37,38,39,40,41,42,43,44,45,46,47,48,49,50,51,52,53,54,55,56,57,58,59,60,61,62,63,64,65,66,67,68,69,70,71,72,73,74,75,76,77,78,79,80,81,82,83,84,85,86,87,88,89,90,91,92,93,94,95,96,97,98,99,100,101,102,103,104,105,106,107,108,109,110,111,112,113,114,115,116,117,118,119,120,121,122,123,124,125,126,127,128,129,130,131,132,133,134,135,136,137,138,139,140,141,142,143}] yes=4,no=3,missing=4
		3:[Chat Conversation Opened<4] yes=7,no=8,missing=8
			7:[Account History Transaction Details<5] yes=13,no=14,missing=14
				13:[device_model:{0,1,2,3,4,5,6,7,8,9,10,11,12,13,14,15,16,17,18,19,20,21,22,23,24,25,26,27,28,29,30,31,32,33,34,35,36,37,38,39,40,41,42,43,44,45,46,47,48,49,50,51,52,53,54,55,56,57,58,59,60,61,62,63,64,65,66,67,68,69,70,71,72,73,74,75,76,77,78,79,80,81,82,83,84,85,86,87,88,89,90,91,92,93,94,95,96,97,98,99,100,101,102,103,104,105,106,107,108,109,110,111,112,113,114,115,116,117,118,119,120,121,122,123,124,125,126,127,128,129,130,131,132,133,134,135,136,137,138,139,140,141,142,143,144,145,146,147,148,149,150,151,152,153,154,155,156,157,158,159,160,161,162,163,164,165,166,167,168,170,171,172,173,174,175,176,177,178,237,239,242}] yes=22,no=21,missing=22
					21:[Order<2] yes=29,no=30,missing=30
						29:leaf=0.100617722
						30:leaf=-0.0558456443
					22:[Sign Out<1] yes=31,no=32,missing=32
						31:leaf=-0.00180353655
						32:leaf=-0.207616806
				14:leaf=-0.186286598
			8:[Add Vehicle Break<1] yes=15,no=16,missing=16
				15:[Chat Conversation Opened<9] yes=23,no=24,missing=24
					23:leaf=0.252626717
					24:leaf=-0.017329447
				16:leaf=-0.0370177664
		4:[Sign Out<1] yes=9,no=10,missing=10
			9:[device_model:{0,1,2,3,4,5,6,7,8,9,10,11,12,13,14,15,16,17,18,19,20,21,22,23,24,25,26,27,28,29,30,31,32,33,34,35,36,37,38,39,40,41,42,43,44,45,46,47,48,49,50,51,52,53,54,55,56,57,58,59,60,61,62,63,64,65,66,67,68,69,70,71,72,73,74,75,76,77,78,79,80,81,82,83,84,85,86,87,88,89,90,91,92,93,94,95,96,97,98,99,100,101,102,103,104,105,106,107,108,109,110,111,112,113,114,115,116,117,118,119,120,121,122,123,124,125,126,127,128,129,130,131,132}] yes=18,no=17,missing=18
				17:leaf=0.187413409
				18:leaf=-0.154209808
			10:leaf=0.225004852
	2:[device_manufacture:{0,1,2,3,4,9,19,21}] yes=6,no=5,missing=6
		5:leaf=0.133906379
		6:[Account History Transaction Details<7] yes=11,no=12,missing=12
			11:[Calculator View<1] yes=19,no=20,missing=20
				19:[Chat Conversation Started<1] yes=25,no=26,missing=26
					25:[user_state:{0,1,2,3,4,5,6,7,8,9,43}] yes=34,no=33,missing=34
						33:leaf=0.0123794749
						34:leaf=-0.153613999
					26:[device_manufacture:{0,2,3,4,5,6,7,8,9,10,11,12,13,14,15,16,17,18,19,20,21}] yes=36,no=35,missing=36
						35:leaf=0.156518385
						36:leaf=-0.0497317053
				20:[Order<5] yes=27,no=28,missing=28
					27:leaf=-0.297811061
					28:leaf=0.0895718038
			12:leaf=0.0832720846
booster[18]:
0:[user_state:{4,30,33,43,45}] yes=2,no=1,missing=2
	1:[device_model:{0,1,2,3,4,5,6,7,8,9,10,11,12,13,14,15,16,17,18,19,20,21,22,23,24,25,26,27,28,29,30,31,32,33,34,35,36,37,38,39,40,41,42,43,44,45,46,47,48,49,50,51,52,53,54,55,56,57,58,59,60,61,62,63,64,65,66,67,68,69,70,71,72,73,74,75,76,77,78,79,80,81,82,83,84,85,86,87,88,89,90,91,92,93,94,95,96,97,98,99,100,101,102,103,104,105,106,107,108,109,110,111,112,113,114,115,116,117,118,119,120,121,122,123,124,125,126,127,128,129,130,131,132,133,134,135,136,137,138,139,140,141,142,143,144,145,146,147,148,149,150,151,152,153,154,155,156,157,158,159,160,161,162,163,164,165,166,167,168,169,170,171,172,173,174,175,176,177,178,179,180,181,182,183,184,185,186,187,188,189,190,191,192,193,194,195,196,197,198,199,200,201,202,203,204,205,206,207,208,209,210,211,212,213,214,215,216,217,218,219,220,221,222,223,224,225,226,227,228,229,230,231,232,233,234,235,236,237,238,239,240,241,242,243}] yes=4,no=3,missing=4
		3:leaf=-0.110664271
		4:[device_model:{0,1,2,3,4,5,6,7,8,9,10,11,12,13,14,15,16,17,18,19,20,21,22,23,24,25,26,27,28,29,30,31,32,33,34,35,36,37,38,39,40,237}] yes=8,no=7,missing=8
			7:[Chat Conversation Started<3] yes=11,no=12,missing=12
				11:[user_state:{0,1,2,3,4,5,6,7,8,10,11,12,13,14,15,16,17,18,19,20,21,22,23,24,25,26,27,28,29,30,31,32,33,34,35,36,37,38,39,40,41,42,43,44}] yes=20,no=19,missing=20
					19:leaf=0.0204031169
					20:leaf=0.242108196
				12:leaf=-0.0121061811
			8:[Calculator View<1] yes=13,no=14,missing=14
				13:leaf=0.00695573818
				14:leaf=-0.0509899259
	2:[Chat Conversation Started<8] yes=5,no=6,missing=6
		5:[Calculator View<2] yes=9,no=10,missing=10
			9:[Order<9] yes=15,no=16,missing=16
				15:[Chat Conversation Opened<9] yes=21,no=22,missing=22
					21:[Chat Conversation Started<5] yes=27,no=28,missing=28
						27:leaf=0.0263015088
						28:leaf=-0.134149343
					22:leaf=-0.169629231
				16:[Account History Transaction Details<3] yes=23,no=24,missing=24
					23:leaf=-0.0338785648
					24:leaf=-0.204518184
			10:[Chat Conversation Started<3] yes=17,no=18,missing=18
				17:[Chat Conversation Opened<4] yes=25,no=26,missing=26
					25:leaf=-0.223335072
					26:leaf=-0.0259956736
				18:leaf=0.0256173015
		6:leaf=0.181829125
booster[19]:
0:[Transaction Refund<1] yes=1,no=2,missing=2
	1:[device_manufacture:{0,1,2,3,4,9,19,21}] yes=4,no=3,missing=4
		3:leaf=0.140151888
		4:[Add Vehicle Success<2] yes=7,no=8,missing=8
			7:[device_model:{0,1,2,3,4,5,6,7,8,9,10,11,12,13,14,15,16,17,18,19,20,21,22,23,24,25,26,27,28,29,30,31,32,33,34,35,36,37,38,39,40,41,42,43,44,45,46,47,48,49,50,51,52,53,54,55,56,57,58,59,60,61,62,63,64,65,66,67,68,69,70,71,72,73,74,75,76,77,78,79,80,81,82,83,84,85,86,87,88,89,90,91,92,93,94,95,96,97,98,99,100,101,102,103,240,244,246}] yes=10,no=9,missing=10
				9:[Wallet Opened<2] yes=13,no=14,missing=14
					13:[Subscription Premium Renew<1] yes=17,no=18,missing=18
						17:leaf=-1.40371321e-05
						18:leaf=-0.142724097
					14:[Calculator View<1] yes=19,no=20,missing=20
						19:leaf=0.203526542
						20:leaf=-0.00958250277
				10:[Account Setup Profile Skip<1] yes=15,no=16,missing=16
					15:[Account History Transaction Details<7] yes=21,no=22,missing=22
						21:leaf=-0.102202788
						22:leaf=0.0405673832
					16:leaf=0.072824806
			8:[Chat Conversation Started<2] yes=11,no=12,missing=12
				11:leaf=-0.213833898
				12:leaf=0.0165190324
	2:[user_state:{0,1,2,3,4,5,6,7,8,9,10,11,12,13,14,15,16,17,18,19,20,21,22,23,24,25,26,27,28,29,30}] yes=6,no=5,missing=6
		5:leaf=0.0434026718
		6:leaf=0.177485675
booster[20]:
0:[Chat Conversation Started<1] yes=1,no=2,missing=2
	1:[Wallet Opened<1] yes=3,no=4,missing=4
		3:[Subscription Premium Renew<1] yes=7,no=8,missing=8
			7:[device_model:{0,1,2,3,4,5,6,7,8,9,10,11,12,13,14,15,16,17,18,19,20,21,22,23,24,25,26,27,28,29,30,31,32,33,34,35,36,37,38,39,40,41,42,43,44,45,46,47,48,49,50,51,52,53,54,55,56,57,58,59,60,61,62,63,64,65,66,67,68,69,70,71,72,73,74,75,76,77,78,79,80,81,82,83,84,85,86,87,88,89,90,91,92,93,94,95,96,97,98,99,100,101,102,103,104,105,106,107,108,109,110,111,112,113,114,115,116,117,118,119,120,121,122,123,124,125,126,127,128,129,130,131,132,133,134,135,136,137,138,139,140,141,142,143,144,145,146}] yes=14,no=13,missing=14
				13:leaf=-0.228890195
				14:leaf=-0.0274465941
			8:leaf=0.0485344976
		4:[Subscription Premium Renew<1] yes=9,no=10,missing=10
			9:[Order<1] yes=15,no=16,missing=16
				15:[device_model:{0,1,2,3,4,5,6,7,8,9,10,11,12,13,14,15,16,17,18,19,20,21,22,23,24,25,26,27,28,29,30,31,32,33,34,35,36,37,38,39,40,41,42,43,44,45,46,47,48,49,50,51,52,53,54,55,56,57,58,59,60,61,62,63,64,65,66,67,68,69,70,71,72,73,74,75,76,77,78,79,80,81,82,83,84,85,86,87,88,89,90,91,92,93,94,95,96,97,98,99,100,101,102,103,104,105,106,107,108,109,110,111,112,113,114,115,116,117,118,119,120,121,122,123,124,125,126,127,128,129,130,131,132,133,134,135,136,137,138,139,140,141,142,143,144,145,146,147,148,149,150,151,152,153,154,155,156,157,158,159,160,161,162,163,164,165,166,167,168,169,170,171,172,173,174,175,176,177,178,179,180,181,182,183,184,185,186,187,188,189,190,191,192,193,194,195,196,197,198,199,200,201,202,203,204,205,206,207,208,209,210,211,212,213,214,215,216,217,218,219,220,221,222,223,224,225,226,227,228,229,230,231,232,233,234,235,236,237,238,239}] yes=24,no=23,missing=24
					23:leaf=0.0351712778
					24:[Account Setup Profile Skip<1] yes=35,no=36,missing=36
						35:leaf=-0.135923028
						36:leaf=0.0655134916
				16:[Order<6] yes=25,no=26,missing=26
					25:[device_model:{0,1,2,3,4,5,6,7,8,9,10,11,12,13,14,15,16,17,18,19,20,21,22,23,24,25,26,27,28,29,30,31,32,33,34,35,36,37,38,39,40,41,42,43,44,45,46,47,48,49,50,51,52,53,54,55,56,57,58,59,60,61,62,63,64,65,66,67,68,69,70,71,72,73,74,75,76,77,78,79,80,81,82,83,84,85,86,87,88,89,90,91,92,93,94,95,96,97,98,99,100,101,102,103,104,105,106,107,108,109,110,111,112,113,114,115,116,117,118,119,120,121,122,123,124,125,126,127,128,129,130,131,132,133,134,135,136,137,138,139,140,141,142,143,144,145,146,147,148,149,150,151,152,153,154,155,156,157,158,159,160,161,162,163,164,165,166,167,168,169,170,171,172,173,174,175,176,177,178,179,180,181,182,183,184,185,186,187,188,189,190,191,192,193,194,195,196,197,198,199,200,201,202,203,204,205,206,207,208,209,210,211,212,213,214,215,216,217,218,219,220,221,222,223,224,225,226,227,228,229,230,231,232,233,234,235,236,237,238,239,240,241,242}] yes=38,no=37,missing=38
						37:leaf=-0.0012265644
						38:leaf=0.2155734
					26:leaf=-0.0313820876
			10:[Order<1] yes=17,no=18,missing=18
				17:leaf=-0.0355047248
				18:leaf=-0.181445614
	2:[Chat Conversation Opened<1] yes=5,no=6,missing=6
		5:leaf=0.171808153
		6:[device_model:{0,1,2,3,4,5,6,7,8,9,10,11,12,13,14,15,16,17,18,19,20,21,22,23,24,25,26,27,28,29,30,31,32,33,34,35,36,37,38,39,40,41,42,43,44,45,46,47,48,49,50,51,52,53,54,55,56,57,58,59,60,61,62,63,64,65,66,67,68,69,70,71,72,73,74,75,76,77,78,79,80,81,82,83,84,85,86,87,88,89,90,91,92,93,94,95,96,97,98,99,100,101,102,103,104,105,106,107,108,109,110,111,112,113,114,115,116,117,118,119,120,121,122,123,124,125,126,127,128,129,130,131,132,133,134,135,136,137,138,139,140,141,142,143,144,145,146,147,148,149,150,151,152,153,154,155,156,157,158,159,160,161,162,163,164,165,166,167,168,169,170,171,172,173,174,175,176,177,178,179,180,181,182,183,184,185,186,187,188,189,190,191,192,193,194,195,196,197,198,199,200,201,236,240}] yes=12,no=11,missing=12
			11:[user_state:{4,9}] yes=20,no=19,missing=20
				19:[Calculator View<1] yes=27,no=28,missing=28
					27:leaf=0.242926285
					28:[device_model:{0,1,2,3,4,5,6,7,8,9,10,11,12,13,14,15,16,17,18,19,20,21,22,23,24,25,26,27,28,29,30,31,32,33,34,35,36,37,38,39,40,41,42,43,44,45,46,47,48,49,50,51,52,53,54,55,56,57,58,59,60,61,62,63,64,65,66,67,68,69,70,71,72,73,74,75,76,77,78,79,80,81,82,83,84,85,86,87,88,89,90,91,92,93,94,95,96,97,98,99,100,101,102,103,104,105,106,107,108,109,110,111,112,113,114,115,116,117,118,119,120,121,122,123,124,125,126,127,128,129,130,131,132,133,134,135,136,137,138,139,140,141,142,143,144,145,146,147,148,149,150,151,152,153,154,155,156,157,158,159,160,161,162,163,164,165,166,167,168,169,170,171,172,173,174,175,176,177,178,179,180,181,182,183,184,185,186,187,188,189,190,191,192,193,194,195,196,197,198,199,200,201,202,203,204,205,206,207,208,209,210,211,212,213,214,215,216,217,218,219,220,221,222,223,224,225,226,227,228,229,230,231,232,233,234,235,236,237,238,239}] yes=40,no=39,missing=40
						39:leaf=-0.0209579095
						40:leaf=0.150644258
				20:[device_model:{0,1,2,3,4,5,6,7,8,9,10,11,12,13,14,15,16,17,18,19,20,21,22,23,24,25,26,27,28,29,30,31,32,33,34,35,36,37,38,39,40,41,42,43,44,45,46,47,48,49,50,51,52,53,54,55,56,57,58,59,60,61,62,63,64,65,66,67,68,69,70,71,72,73,74,75,76,77,78,79,80,81,82,83,84,85,86,87,88,89,90,91,92,93,94,95,96,97,98,99,100,101,102,103,104,105,106,107,108,109,110,111,112,113,114,115,116,117,118,119,120,121,122,123,124,125,126,127,128,129,130,131,132,133,134,135,136,137,138,139,140,141,142,143,144,145,146,147,148,149,150,151,152,153,154,155,156,157,158,159,160,161,162,163,164,165,166,167,168,169,170,171,172,173,174,175,176,177,178,179,180,181,182,183,184,185,186,187,188,189,190,191,192,193,194,195,196,197,198,199,200,201,202,203,204,205,206,207,208,209,210,211,212,213,214,215,216,217,218,219,220,221,222,223,224,225,226,227,228,229,230,231,232,233,234,235,236,238,239,240,241,242,243,245,246,247,248,249,250,251,252,253}] yes=30,no=29,missing=30
					29:[Calculator View<2] yes=41,no=42,missing=42
						41:leaf=0.159591198
						42:leaf=-0.0288153533
					30:[Order<1] yes=43,no=44,missing=44
						43:leaf=-0.184177756
						44:leaf=0.0329061337
			12:[Chat Conversation Started<7] yes=21,no=22,missing=22
				21:[user_state:{0,1,2,3,5,6,7,8,9,10,11,12,13,14,15,16,17,18,19,20,21,22,23,24,25,26,27,28,29,30,31,32,33,34,35,36,37,38,39,40,41,42,43,44,45}] yes=32,no=31,missing=32
					31:[Wallet Opened<2] yes=45,no=46,missing=46
						45:leaf=-0.0576856919
						46:leaf=0.100778244
					32:[Order<2] yes=47,no=48,missing=48
						47:leaf=-0.222937807
						48:leaf=0.0140226409
				22:[Chat Conversation Opened<6] yes=33,no=34,missing=34
					33:leaf=-0.0165966395
					34:leaf=0.123899341
booster[21]:
0:[Transaction Refund<1] yes=1,no=2,missing=2
	1:[Chat Conversation Started<1] yes=3,no=4,missing=4
		3:[Add Vehicle Success<2] yes=5,no=6,missing=6
			5:[user_state:{0,1,2,3,5,6,7,8,10,11,12,13,14,15,16,17,18,19,20,21,22,23,24,25,26,27,28,29,30,31,32,33,34,35,43}] yes=10,no=9,missing=10
				9:[device_model:{0,1,2,3,4,5,6,7,8,9,10,11,12,13,14,15,16,17,18,19,20,21,22,23,24,25,26,27,28,29,30,31,32,33,34,35,36,37,38,39,40,41,42,43,44,45,46,47,48,49,50,51,52,53,54,55,56,57,58,59,60,61,62,63,64,65,66,67,68,69,70,71,72,73,74,75,76,77,78,79,80,81,82,83,84,85,86,87,88,89,90,91,92,93,94,95,96,97,98,99,100,101,102,103,104,105,106,107,108,109,110,111,112,113,114,115,116,117,118,119,120,121,122,123,124,125,126,127,128,129,130,131,132,133,134,135,136,137,138,139,140,141,142,143,144,145,146,147,148,149,150,151,152,153,154,155,156,157,158,159,160,161,162,163,164,165,166,167,168,169,170,171,172,173,174,175,176,177,178,179,180,181,182,183,184,185,186,187,188,189,190,191,192,193,194,195,196,197,198,199,200,201,202,203,204,205,206,207,208,209,210,211,212,213,214,215,216,217,218,219,220,221,222,223,224,225,226,227,228,229,230,231,232,233,234,235,236,237,238,240,241,243,244}] yes=14,no=13,missing=14
					13:[Account History Transaction Details<2] yes=21,no=22,missing=22
						21:leaf=0.000608919945
						22:leaf=0.19946304
					14:[device_model:{0,1,2,3,4,5,6,7,8,9,10,11,12,13,14,15,16,17,18,19,20,21,22,23,24,25,26,27,28,29,30,31,32,33,34,35,36,37,38,39,40,41,42,43,44,45,46,47,48,49,50,51,52,53,54,55,56,57,58,59,60,61,62,63,64,65,66,67,68,69,70,71,72,73,74,75,76,77,78,79,80,81,82,83,84,85,86,87,88,89,90,91,92,93,94,95,96,97,98,99,100,101,102,103,104,105,106,107,108,109,110,111,112,113,114,115,116,117,118,119,120,121,122,123,124,125,126,127,128,129,130,131,132,133,134,135,136,137,138,139,140,141,142,143,144,145,146,147,148,149,150,151,152,153,154,155,156,157,158,159,160,161,162,163,164,165,166,167,168,169,170,171,172,173,174,175,176,177,178,179,180,181,182,183,184,185,186,187,188,189}] yes=24,no=23,missing=24
						23:leaf=-0.128312096
						24:leaf=0.0463878363
				10:[Sign Out<1] yes=15,no=16,missing=16
					15:[Calculator View<1] yes=25,no=26,missing=26
						25:leaf=-0.0662806481
						26:leaf=-0.193192914
					16:leaf=0.0281952433
			6:leaf=-0.18278794
		4:[Chat Conversation Opened<1] yes=7,no=8,missing=8
			7:leaf=0.145305306
			8:[device_model:{0,1,2,3,4,5,6,7,8,9,10,11,12,13,14,15,16,17,18,19,20,21,22,23,24,25,26,27,28,29,30,31,32,33,34,35,36,37,38,39,40,41,42,43,44,45,46,47,48,49,50,51,52,53,54,55,56,57,58,59,60,61,62,63,64,65,66,67,68,69,70,71,72,73,74,75,76,77,78,79,80,81,82,83,84,85,86,87,88,89,90,91,92,93,94,95,96,97,98,99,100,101,102,103,104,105,106,107,108,109,110,111,112,113,114,115,116,117,118,119,120,121,122,123,124,125,126,127,128,129,130,131,132,133,134,135,136,137,138,139,140,141,142,143,144,145,146,147,148,149,150,151,152,153,154,155,156,157,158,159,160,161,162,163,164,165,166,167,168,169,170,171,172,173,174,175,176,177,178,179,180,181,182,183,184,185,186,187,188,189,190,191,192,193,194,195,196,197,198,199,200,201,240}] yes=12,no=11,missing=12
				11:[device_model:{0,1,2,3,4,5,6,7,8,9,10,11,12,13,14,15,16,17,18,19,20,21,22,23,24,25,26,27,28,29,30,31,32,33,34,35,36,37,38,39,40,41,42,43,44,45,46,47,48,49,50,51,52,53,54,55,56,57,58,59,60,61,62,63,64,65,66,67,68,69,70,71,72,73,74,75,76,77,78,79,80,81,82,83,84,85,86,87,88,89,90,91,92,93,94,95,96,97,98,99,100,101,102,103,104,105,106,107,108,109,110,111,112,113,114,115,116,117,118,119,120,121,122,123,124,125,126,127,128,129,130,131,132,133,134,135,136,137,138,139,140,141,142,143,144,145,146,147,148,149,150,151,152,153,154,155,156,157,158,159,160,161,162,163,164,165,166,167,168,169,170,171,172,173,174,175,176,177,178,179,180,181,182,183,184,185,186,187,188,189,190,191,192,193,194,195,196,197,198,199,200,201,202,203,204,205,206,207,208,209,210,211,212,213,214,215,216,217,218,219,220,221,222,223,224,225,226,227,228,229,230,231,232}] yes=18,no=17,missing=18
					17:[user_state:{4,9}] yes=28,no=27,missing=28
						27:leaf=0.0911717489
						28:leaf=-0.0353591181
					18:leaf=0.207342386
				12:[Add Payment Method Success<2] yes=19,no=20,missing=20
					19:[device_model:{0,1,2,3,4,5,6,7,8,9,10,11,12,13,14,15,16,17,18,19,20,21,22,23,24,25,26,27,28,29,30,31,32,33,34,35,36,37,38,39,40,41,42,43,44,45,46,47,48,49,50,51,52,53,54,55,56,57,58,59,60,61,62,63,64,65,66,67,68,69,70,71,72,73,74,75,76,77,78,79,80,81,82,83,84,85,86,87,88,89,90,91,92,93,94,95,96,97,98,99,100,101,102,103,104,105,106,107,108,109,110,111,112,113,114,115,116,117,118,119,120,121,122,123,124,125,126,127,128,129,130,131,132,133,134,135,136,137,138,139,140,141,142,143}] yes=30,no=29,missing=30
						29:leaf=-0.156292319
						30:leaf=0.00897139963
					20:leaf=0.130892158
	2:leaf=0.134555891
booster[22]:
0:[user_state:{30,33}] yes=2,no=1,missing=2
	1:[Transaction Refund<1] yes=3,no=4,missing=4
		3:[Order<8] yes=7,no=8,missing=8
			7:[Add Payment Method Failed<1] yes=9,no=10,missing=10
				9:[Sign Out<1] yes=13,no=14,missing=14
					13:[device_model:{0,1,2,3,4,5,6,7,8,9,10,11,12,13,14,15,16,17,18,19,20,21,22,23,24,25,26,27,28,29,30,31,32,33,34,35,36,37,38,39,40,41,42,43,44,45,46,47,48,49,50,51,52,53,54,55,56,57,58,59,60,61,62,63,64,65,66,67,68,69,70,71,72,73,74,75,76,77,78,79,80,81,82,83,84,85,86,87,88,89,90,91,92,93,94,95,96,97,98,99,100,101,102,103,104,105,106,107,108,109,110,111,112,113,114,115,116,117,118,119,120,121,122,123,124,125,126,127,128,129,130,131,132,169,242,244,246}] yes=20,no=19,missing=20
						19:leaf=0.0260153525
						20:leaf=-0.0880585313
					14:[device_model:{0,1,2,3,4,5,6,7,8,9,10,11,12,13,14,15,16,17,18,19,20,21,22,23,24,25,26,27,28,29,30,31,32,33,34,35,36,37,38,39,40,41,42,43,44,45,46,47,48,49,50,51,52,53,54,55,56,57,58,59,60,61,62,63,64,65,66,67,68,69,70,71,72,73,74,75,76,77,78,79,80,81,82,83,84,85,86,87,88,89,90,91,92,93,94,95,96,97,98,99,100,101,102,103,104,105,106,107,108,109,110,111,112,113,114,115,116,117,118,119,120,121,122,123,124,125,126,127,128,129,130,131,132}] yes=22,no=21,missing=22
						21:leaf=-0.0135892183
						22:leaf=0.200814322
				10:[device_model:{0,1,2,3,4,5,6,7,8,9,10,11,12,13,14,15,16,17,18,19,20,21,22,23,24,25,26,27,28,29,30,31,32,33,34,35,36,37,38,39,40,41,42,43,44,45,46,47,48,49,50,51,52,53,54,55,56,57,58,59,60,61,62,63,64,65,66,67,68,69,70,71,72,73,74,75,76,77,78,79,80,81,82,83,84,85,86,87,88,89,90,91,92,93,94,95,96,97,98,99,100,101,102,103,104,105,106,107,108,109,110,111,112,113,114,115,116,117,118,119,120,121,122,123,124,125,126,127,128,129,130,131,132,133,134,135,136,137,138,139,140,141,142,143,144,145,146,147,148,149,150,151,152,153,154,155,156,157,158,159,160,161,162,163,164,165}] yes=16,no=15,missing=16
					15:leaf=0.202874988
					16:leaf=-0.037382368
			8:[Order<14] yes=11,no=12,missing=12
				11:leaf=-0.168985099
				12:[user_state:{0,1,2,3,5,6,7,8,9,10,11,12,13,14,15,16,17,18,19,20,21,22,23,24,25,26,27,28,29,30,31,32,33,34,35,36,37,38,39,40,41,42,43}] yes=18,no=17,missing=18
					17:leaf=0.0477752015
					18:leaf=-0.0882404521
		4:leaf=0.187069863
	2:[device_model:{0,1,2,3,4,5,6,7,8,9,10,11,12,13,14,15,16,17,18,19,20,21,22,23,24,25,26,27,28,29,30,31,32,33,34,35,36,37,38,39,40,41,42,43,44,45,46,47,48,49,50,51,52,53,54,55,56,57,58,59,60,61,62,63,64,65,66,67,68,69,70,71,72,73,74,75,76,77,78,79,80,81,82,83,84,85,86,87,88,89,90,91,92,93,94,95,96,97,98,99,100,101,102,103,104,105,106,107,108,109,110,111,112,113,114,115,116,117,118,119,120,121,122,123,124,125,126,127,128,129,130,131,132,133,134,135,136,137,138,139,140,141,142,143,144,145,146,147,148,149,150,151,152,153,154,155,156,157,158,159,160,161,162,163,164,165,166,167,168,169,170,171,172,173,174,175,176,177,178,179,180,181,182,183,184,185,186,187,188,189,190,191,192,193,194,195,196,197,198,199,200,201,202,203,204,205,206,207,208,209,210,211,212,213,214,215,216,217,218,219,220,221,222,223,224,225,226,227,228,229,230,231,232,233,234,235,236,237}] yes=6,no=5,missing=6
		5:leaf=0.000581443601
		6:leaf=-0.188726276
booster[23]:
0:[user_state:{30,33,43,45}] yes=2,no=1,missing=2
	1:[device_model:{0,1,2,3,4,5,6,7,8,9,10,11,12,13,14,15,16,17,18,19,20,21,22,23,24,25,26,27,28,29,30,31,32,33,34,35,36,37,38,39,40,41,42,43,44,45,46,47,48,49,50,51,52,53,54,55,56,57,58,59,60,61,62,63,64,65,66,67,68,69,70,71,72,73,74,75,76,77,78,79,80,81,82,83,84,85,86,87,88,89,90,91,92,93,94,95,96,97,98,99,100,101,102,103,104,105,106,107,108,109,110,111,112,113,114,115,116,117,118,119,120,121,122,123,124,125,126,127,128,129,130,131,132,133,134,135,136,137,138,139,140,141,142,143,144,145,146,147,148,149,150,151,152,153,154,155,156,157,158,159,160,161,162,163,164,165,166,167,168,170,171,172,173,174,175,176,177,178,179,180,181,182,183,184,185,186,187,188,189,190,191,192,193,194,195,196,197,198,199,200,201,202,203,204,205,206,207,208,209,210,211,212,213,214,215,216,217,218,219,220,221,222,223,224,225,226,227,228,229,230,231,232,233,234,235,236,238,240,241,244,245,246,247,248,249,250,251,252,253,254}] yes=4,no=3,missing=4
		3:[Account History Transaction Details<5] yes=7,no=8,missing=8
			7:[Account History Transaction Details<2] yes=15,no=16,missing=16
				15:[device_model:{0,1,2,3,4,5,6,7,8,9,10,11,12,13,14,15,16,17,18,19,20,21,22,23,24,25,26,27,28,29,30,31,32,33,34,35,36,37,38,39,40,41,42,43,44,45,46,47,48,49,50,51,52,53,54,55,56,57,58,59,60,61,62,63,64,65,66,67,68,69,70,71,72,73,74,75,76,77,78,79,80,81,82,83,84,85,86,87,88,89,90,91,92,93,94,95,96,97,98,99,100,101,102,103,104,105,106,107,108,109,110,111,112,113,114,115,116,117,118,119,120,121,122,123,124,125,126,127,128,129,130,131,132,133,134,135,136,137,138,139,140,141,142,143,144,145,146,147,148,149,150,151,152,153,154,155,156,157,158,159,160,161,162,163,164,165,166,167,168,170,171,172,173,174,175,176,177,178,179,180,181,182,183,184,185,186,187,188,189,190,191,192,193,194,195,196,197,198,199,200,201,202,203,204,205,206,207,208,209,210,211,212,213,214,215,216,217,218,219,220,221,222,223,224,225,226,227,228,229,230,231,232,233,234,235,236,238,239,240,241,242}] yes=28,no=27,missing=28
					27:[Calculator View<2] yes=39,no=40,missing=40
						39:leaf=0.1794779
						40:leaf=-0.0111308564
					28:leaf=-0.124009445
				16:[Chat Conversation Opened<2] yes=29,no=30,missing=30
					29:leaf=0.296751916
					30:leaf=0.0849116594
			8:leaf=-0.0822984576
		4:[device_model:{0,1,2,3,4,5,6,7,8,9,10,11,12,13,14,15,16,17,18,19,20,21,22,23,24,25,26,27,28,29,30,31,32,33,34,35,36,37,38,39,40,41,42,43,44,45,46,47,48,49,50,51,52,53,54,55,56,57,58,59,60,61,62,63,64,65,66,67,68,69,70,71,72,73,74,75,76,77,78,79,80,81,82,83,84,85,86,87,88,89,90,91,92,93,94,95,96,97,98,99,100,101,102,103,104,105,106,107,108,109,110,111,112,113,114,115,116,117,118,119,120,121,122,123,124,125,126,127,128,129,130,131,132,133,134,135,136,137,138,139,140,141,142,143,144,145,146,147,148,149,150,151,152,153,154,155,156,157,158,159,160,161,162,163,164,165,166,167,168,169,170,171,172,173,174,175,176,177,178,179,180,181,182,183,184,185,186,187,188,189,190,191,192,193,194,195,196,197,198,199,200,201,202,203,204,205,206,207,208,209,210,211,212,213,214,215,216,217,218,219,220,221,222,223,224,225,226,227,228,229,230,231,232,233,234,235,236,237,238,244,246}] yes=10,no=9,missing=10
			9:[Wallet Opened<3] yes=17,no=18,missing=18
				17:[Chat Conversation Opened<2] yes=31,no=32,missing=32
					31:leaf=-0.0283651371
					32:leaf=-0.230508581
				18:leaf=0.0928269029
			10:[Order<8] yes=19,no=20,missing=20
				19:[Chat Conversation Opened<1] yes=33,no=34,missing=34
					33:[Sign Out<1] yes=41,no=42,missing=42
						41:leaf=-0.124711432
						42:leaf=0.147163689
					34:[Order<3] yes=43,no=44,missing=44
						43:leaf=0.0331975147
						44:leaf=0.215048417
				20:leaf=-0.152588502
	2:[Chat Conversation Started<1] yes=5,no=6,missing=6
		5:[Sign Out<1] yes=11,no=12,missing=12
			11:[device_model:{0,1,2,3,4,5,6,7,8,9,10,11,12,13,14,15,16,17,18,19,20,21,22,23,24,25,26,27,28,29,30,31,32,33,34,35,36,37,38,39,40,41,42,43,44,45,46,47,48,49,50,51,52,53,54,55,56,57,58,59,60,61,62,63,64,65,66,67,68,69,70,71,72,73,74,75,76,77,78,79,80,81,82,83,84,85,86,87,88,89,90,91,92,93,94,95,96,97,98,99,100,101,102,103,104,105,106,107,108,109,110,111,112,113,114,115,116,117,118,119,120,121,122,123,124,125,126,127,128,129,130,131,132,133,134,135,136,137,138,139,140,141,142,143,144,145,146,147,148,149,150,151,152,153,154,155,156,157,158,159,160,161,162,163,164,165,166,167,168,169,170,171,172,173,174,175,176,177,178,179,180,181,182,183,184,185,186,187,188,189,190,191,192,193,194,195,196,197,198,199,200,201,202,203,204,205,206,207,208,209,210,211,212,213,214,215,216,217,218,219,220,221,222,223,224,225,226,227,228,229,230,231,232,233,234,235,236,237,238,239,240}] yes=22,no=21,missing=22
				21:leaf=-0.0560280792
				22:leaf=-0.192647725
			12:leaf=0.0102470247
		6:[Calculator View<1] yes=13,no=14,missing=14
			13:[device_model:{0,1,2,3,4,5,6,7,8,9,10,11,12,13,14,15,16,17,18,19,20,21,22,23,24,25,26,27,28,29,30,31,32,33,34,35,36,37,38,39,40,41,42,43,44,45,46,47,48,49,50,51,52,53,54,55,56,57,58,59,60,61,62,63,64,65,66,67,68,69,70,71,72,73,74,75,76,77,78,79,80,81,82,83,84,85,86,87,88,89,90,91,92,93,94,95,96,97,98,99,100,101,102,103,104,105,106,107,108,109,110,111,112,113,114,115,116,117,118,119,120,121,122,123,124,125,126,127,128,129,130,131,132,133,134,135,136,137,138,139,140,141,142,143,144,145,146,147,148,149,150,151,152,153,154,155,156,157,158,159,160,161,162,163,164,165,166,167,168,169,170,171,172,173,174,175,176,177,178,179,180,181,182,183,184,185,186,187,188,189,190,191,192,193,194,195,196,197,198,199,200,201}] yes=24,no=23,missing=24
				23:leaf=0.189449862
				24:[device_model:{0,1,2,3,4,5,6,7,8,9,10,11,12,13,14,15,16,17,18,19,20,21,22,23,24,25,26,27,28,29,30,31,32,33,34,35,36,37,38,39,40,41,42,43,44,45,46,47,48,49,50,51,52,53,54,55,56,57,58,59,60,61,62,63,64,65,66,67,68,69,70,71,72,73,74,75,76,77,78,79,80,81,82,83,84,85,86,87,88,89,90,91,92,93,94,95,96,97,98,99,100,101,102,103,104,105,106,107,108,109,110,111,112,113,114,115,116,117,118,119,120,121,122,123,124,125,126,127,128,129,130,131,132,133,134}] yes=36,no=35,missing=36
					35:leaf=-0.0234975051
					36:leaf=0.0502029657
			14:[Chat Conversation Opened<3] yes=25,no=26,missing=26
				25:leaf=-0.240153208
				26:[device_model:{0,1,2,3,4,5,6,7,8,9,10,11,12,13,14,15,16,17,18,19,20,21,22,23,24,25,26,27,28,29,30,31,32,33,34,35,36,37,38,39,40,41,42,43,44,45,46,47,48,49,50,51,52,53,54,55,56,57,58,59,60,61,62,63,64,65,66,67,68,69,70,71,72,73,74,75,76,77,78,79,80,81,82,83,84,85,86,87,88,89,90,91,92,93,94,95,96,97,98,99,100,101,102,103,104,105,106,107,108,109,110,111,112,113,114,115,116,117,118,119,120,121,122,123,124,125,126,127,128,129,130,131,132,133,134,135,136,137,138,139,140,141,142,143,144,145,146,147,148,149,150,151,152,153,154,155,156,157,158,159,160,161,162,163,164,165,166,167,168,169,170,171,172,173,174,175,176,177,178,179,180,181,182,183,184,185,186,187,188,189,190,191,192,193,194,195,196,197,198,199,200,201,202,203,204,205,206,207,208,209,210,211,212,213,214,215,216,217,218,219,220,221,222,223,224,225,226,227,228,229,230,231}] yes=38,no=37,missing=38
					37:leaf=-0.0314436778
					38:leaf=0.0743582919
booster[24]:
0:[Chat Conversation Started<2] yes=1,no=2,missing=2
	1:[device_model:{0,1,2,3,4,5,6,7,8,9,10,11,12,13,14,15,16,17,18,19,20,21,22,23,24,25,26,27,28,29,30,31,32,33,34,35,36,37,38,39,40,41,42,43,44,45,46,47,48,49,50,51,52,53,54,55,56,57,58,59,60,61,62,63,64,65,66,67,68,69,70,71,72,73,74,75,76,77,78,79,80,81,82,83,84,85,86,87,88,89,90,91,92,93,94,95,96,97,98,99,100,101,102,103,104,105,106,107,108,109,110,111,112,113,114,115,116,117,118,119,120,121,122,123,124,125,126,127,128,129,130,131,132,133,134,135,136,137,138,139,140,141,142,236,244,248}] yes=4,no=3,missing=4
		3:[user_state:{4,9,43}] yes=8,no=7,missing=8
			7:[Order<1] yes=15,no=16,missing=16
				15:[user_state:{0,1,2,3,4,5,6,7,8,9,10,11,12,13,14,15,16,17,18,19,20}] yes=26,no=25,missing=26
					25:leaf=0.062026605
					26:leaf=0.209039196
				16:[Chat Conversation Opened<1] yes=27,no=28,missing=28
					27:leaf=-0.0625007898
					28:leaf=0.0519063957
			8:[device_model:{0,1,2,3,4,5,6,7,8,9,10,11,12,13,14,15,16,17,18,19,20,21,22,23,24,25,26,27,28,29,30,31,32,33,34,35,36,37,38,39,40,41,42,43,44,45,46,47,48,49,50,51,52,53,54,55,56,57,58,59,60,61,62,63,64,65,66,67,68,69,70,71,72,73,74,75,76,77,78,79,80,81,82,83,84,85,86,87,88,89,90,91,92,93,94,95,96,97,98,99,100,101,102,103,104,105,106,107,108,109,110,111,112,113,114,115,116,117,118,119,120,121,122,123,124,125,126,127,128,129,130,131,132,133,134,135,136,137,138,139,140,141,142,143,144,145,146,147,148,149,150,151,152,153,154,155,156,157,158,159,160,161,162,163,164,165,166,167,168,169,170,171,172,173,174,175,176,177,178,179,180,181,182,183,184,185,186,187,188,189,190,191,192,193,194,195,196,197,198,199,200,201,202,203,204,205,206,207,208,209,210,211,212,213,214,215,216,217,218,219,220,221,222,223,224,225,226,227,228,229,230,231,232,233,234,235,236,238,240,241,242,243,244,245,246,247,248,249,250,251,252,253}] yes=18,no=17,missing=18
				17:[Wallet Opened<1] yes=29,no=30,missing=30
					29:leaf=-0.126799136
					30:[Order<1] yes=35,no=36,missing=36
						35:leaf=0.0511513688
						36:leaf=0.18364808
				18:[device_model:{0,1,2,3,4,5,6,7,8,9,10,11,12,13,14,15,16,17,18,19,20,21,22,23,24,25,26,27,28,29,30,31,32,33,34,35,36,37,38,39,40,41,42,43,44,45,46,47,48,49,50,51,52,53,54,55,56,57,58,59,60,61,62,63,64,65,66,67,68,69,70,71,72,73,74,75,76,77,78,79,80,81,82,83,84,85,86,87,88,89,90,91,92,93,94,95,96,97,98,99,100,101,102,103,104,105,106,107,108,109,110,111,112,113,114,115,116,117,118,119,120,121,122,123,124,125,126,127,128,129,130,131,132,133,134,135,136,137,138,139,140,141,142,143,144,145,146,147,148,149,150,151,152,153,154,155,156,157,158,159,160,161,162,163,164,165,166,167,168,169,170,171,172,173,174,175,176,177,178,179,180,181,182,183,184,185,186,187,188,189,190,191,192,193,194,195,196,197,198,199,200,201,202,203,204,205,206,207,208,209,210,211,212,213,214,215,216,217,218,219,220,221,222,223,224,225,226,227,228,229,230,231,232,242,243,246}] yes=32,no=31,missing=32
					31:[Chat Conversation Opened<2] yes=37,no=38,missing=38
						37:leaf=0.00655480707
						38:leaf=-0.169415414
					32:[device_model:{0,1,2,3,4,5,6,7,8,9,10,11,12,13,14,15,16,17,18,19,20,21,22,23,24,25,26,27,28,29,30,31,32,33,34,35,36,37,38,39,40,41,42,43,44,45,46,47,48,49,50,51,52,53,54,55,56,57,58,59,60,61,62,63,64,65,66,67,68,69,70,71,72,73,74,75,76,77,78,79,80,81,82,83,84,85,86,87,88,89,90,91,92,93,94,95,96,97,98,99,100,101,102,103,104,105,106,107,108,109,110,111,112,113,114,115,116,117,118,119,120,121,122,123,124,125,126,127,128,129,130,131,132,133,134,135,136,137,138,139,140,141,142,143,144,145,146,147,148,149,150,151,152,153,154,155,156,157,158,159,160,161,162,163,164,165,166,167,168,169,170,171,172,173,174,175,176,177,178,179,180,181,182,183,184,185,186,187,188,189,190,191,192,193,194,195,196,197,198,199,200,201,202,203,204,205,206,207,208,209,210,211,212,213,242,243,246}] yes=40,no=39,missing=40
						39:leaf=0.142854407
						40:leaf=-0.05264147
		4:[Sign Out<1] yes=9,no=10,missing=10
			9:[Account History Transaction Details<3] yes=19,no=20,missing=20
				19:[Chat Conversation Opened<3] yes=33,no=34,missing=34
					33:[Wallet Opened<2] yes=41,no=42,missing=42
						41:leaf=-0.263073444
						42:leaf=-0.0707901791
					34:leaf=-0.0175856557
				20:leaf=0.0540917367
			10:leaf=0.125057235
	2:[device_model:{0,1,2,3,4,5,6,7,8,9,10,11,12,13,14,15,16,17,18,19,20,21,22,23,24,25,26,27,28,29,30,31,32,33,34,35,36,37,38,39,40,41,42,43,44,45,46,47,48,49,50,51,52,53,54,55,56,57,58,59,60,61,62,63,64,65,66,67,68,69,70,71,72,73,74,75,76,77,78,79,80,81,82,83,84,85,86,87,88,89,90,91,92,93,94,95,96,97,98,99,100,101,102,103,104,105,106,107,108,109,110,111,112,113,114,115,116,117,118,119,120,121,122,123,124,125,126,127,128,129,130,131,132,133,134,135,136,137,138,139,140,141,142}] yes=6,no=5,missing=6
		5:[Chat Conversation Opened<5] yes=11,no=12,missing=12
			11:[Account History Transaction Details<2] yes=21,no=22,missing=22
				21:leaf=0.0364829786
				22:leaf=-0.148754343
			12:leaf=0.0977383927
		6:[Chat Conversation Opened<3] yes=13,no=14,missing=14
			13:leaf=0.22648637
			14:[Order<1] yes=23,no=24,missing=24
				23:leaf=-0.0884650946
				24:leaf=0.0841190293
booster[25]:
0:[Chat Conversation Started<1] yes=1,no=2,missing=2
	1:[Add Vehicle Success<1] yes=3,no=4,missing=4
		3:leaf=0.100716561
		4:[Wallet Opened<1] yes=7,no=8,missing=8
			7:[Subscription Premium Renew<1] yes=11,no=12,missing=12
				11:[device_manufacture:{0,1,2,3,4,5,6,7,8,9,10,11,12}] yes=20,no=19,missing=20
					19:leaf=-0.0418238863
					20:leaf=-0.195905879
				12:leaf=-0.0242272243
			8:[Subscription Premium Renew<1] yes=13,no=14,missing=14
				13:[Account History Transaction Details<4] yes=21,no=22,missing=22
					21:[Account History Transaction Details<2] yes=33,no=34,missing=34
						33:leaf=-0.0104025472
						34:leaf=0.163558587
					22:leaf=-0.0639016405
				14:[Order<1] yes=23,no=24,missing=24
					23:leaf=-0.0147601999
					24:leaf=-0.163065121
	2:[Chat Conversation Opened<1] yes=5,no=6,missing=6
		5:leaf=0.139803126
		6:[device_model:{0,1,2,3,4,5,6,7,8,9,10,11,12,13,14,15,16,17,18,19,20,21,22,23,24,25,26,27,28,29,30,31,32,33,34,35,36,37,38,39,40,41,42,43,44,45,46,47,48,49,50,51,52,53,54,55,56,57,58,59,60,61,62,63,64,65,66,67,68,69,70,71,72,73,74,75,76,77,78,79,80,81,82,83,84,85,86,87,88,89,90,91,92,93,94,95,96,97,98,99,100,101,102,103,104,105,106,107,108,109,110,111,112,113,114,115,116,117,118,119,120,121,122,123,124,125,126,127,128,129,130,131,132,133,134,135,136,137,138,139,140,141,142,143,144,145,146,147,148,149,150,151,152,153,154,155,156,157,158,159,160,161,162,163,164,165,166,167,168,169,170,171,172,173,174,175,176,177,178,236}] yes=10,no=9,missing=10
			9:[user_state:{4,9}] yes=16,no=15,missing=16
				15:[Order<1] yes=25,no=26,missing=26
					25:leaf=0.16238977
					26:leaf=0.0132541843
				16:[Account History Transaction Details<5] yes=27,no=28,missing=28
					27:[Order<1] yes=35,no=36,missing=36
						35:leaf=-0.0432617441
						36:leaf=0.159270704
					28:leaf=-0.130924031
			10:[user_state:{0,1,2,3,5,6,7,8,9,10,11,12,13,14,15,16,17,18,19,20,21,22,23,24,25,26,27,28,29,30,31,32,33,34,35,36,37,38,39,40,41,42,43,44,45}] yes=18,no=17,missing=18
				17:[Account History Transaction Details<3] yes=29,no=30,missing=30
					29:[device_model:{0,1,2,3,4,5,6,7,8,9,10,11,12,13,14,15,16,17,18,19,20,21,22,23,24,25,26,27,28,29,30,31,32,33,34,35,36,37,38,39,40,41,42,43,44,45,46,47,48,49,50,51,52,53,54,55,56,57,58,59,60,61,62,63,64,65,66,67,68,69,70,71,72,73,74,75,76,77,78,79,80,81,82,83,84,85,86,87,88,89,90,91,92,93,94,95,96,97,98,99,100,101,102,103,104,105,106,107,108,109,110,111,112,113,114,115,116,117,118,119,120,121,122,123,124,125,126,127,128,129,130,131,132,133,134,135,136,137,138,139,140,141,142,143,144,145,146,147,148,149,150,151,152,153,154,155,156,157,158,159,160,161,162,163,164,165}] yes=38,no=37,missing=38
						37:leaf=0.0866738185
						38:leaf=-0.10065563
					30:leaf=0.115231663
				18:[user_state:{0,1,2,3,4,5,6,7,8,9,10,11,12,13,14,43}] yes=32,no=31,missing=32
					31:leaf=-0.189903632
					32:[Calculator View<1] yes=39,no=40,missing=40
						39:leaf=0.0635869429
						40:leaf=-0.0841406435
booster[26]:
0:[user_state:{0,1,2,3,4,5,6,7,8,10,11,12,13,15,16,17,18,19,20,21,22,23,24,25,26,27,28,29,30,31,32,33,34,35,36,37,38,39,40,41,42,43,44,45,46,47,48,49}] yes=2,no=1,missing=2
	1:[Wallet Opened<1] yes=3,no=4,missing=4
		3:leaf=0.168443218
		4:[Account History Transaction Details<2] yes=7,no=8,missing=8
			7:leaf=-0.132234395
			8:leaf=0.0821049437
	2:[Subscription Premium Renew<1] yes=5,no=6,missing=6
		5:[Add Vehicle Break<1] yes=9,no=10,missing=10
			9:[device_model:{0,1,2,3,4,5,6,7,8,9,10,11,12,13,14,15,16,17,18,19,20,21,22,23,24,25,26,27,28,29,30,31,32,33,34,35,36,37,38,39,40,41,42,43,44,45,46,47,48,49,50,51,52,53,54,55,56,57,58,59,60,61,62,63,64,65,66,67,68,69,70,71,72,73,74,75,76,77,78,79,80,81,82,83,84,85,86,87,88,89,90,91,92,93,94,95,96,97,98,99,100,101,102,239,246}] yes=14,no=13,missing=14
				13:[Calculator View<2] yes=21,no=22,missing=22
					21:[Email Confirmation Success<1] yes=27,no=28,missing=28
						27:leaf=0.0950792506
						28:leaf=-0.00454233866
					22:[Chat Conversation Opened<2] yes=29,no=30,missing=30
						29:leaf=-0.0787937567
						30:leaf=0.0156714283
				14:[Order<1] yes=23,no=24,missing=24
					23:leaf=-0.183410481
					24:[Wallet Opened<4] yes=31,no=32,missing=32
						31:leaf=0.105337605
						32:leaf=-0.053258419
			10:[Chat Conversation Opened<3] yes=15,no=16,missing=16
				15:leaf=0.0353323445
				16:[Account History Transaction Details<5] yes=25,no=26,missing=26
					25:leaf=-0.231995359
					26:leaf=-0.0136206439
		6:[Sign Out<1] yes=11,no=12,missing=12
			11:[Wallet Opened<2] yes=17,no=18,missing=18
				17:leaf=-0.196287587
				18:leaf=0.0109339878
			12:[Wallet Opened<1] yes=19,no=20,missing=20
				19:leaf=0.12392243
				20:leaf=-0.0486441217
booster[27]:
0:[Chat Conversation Started<1] yes=1,no=2,missing=2
	1:[Account Setup Profile Skip<1] yes=3,no=4,missing=4
		3:[Add Vehicle Success<1] yes=7,no=8,missing=8
			7:leaf=0.0697343647
			8:[device_model:{0,1,2,3,4,5,6,7,8,9,10,11,12,13,14,15,16,17,18,19,20,21,22,23,24,25,26,27,28,29,30,31,32,33,34,35,36,37,38,39,40,41,42,43,44,45,46,47,48,49,50,51,52,53,54,55,56,57,58,59,60,61,62,63,64,65,66,67,68,69,70,71,72,73,74,75,76,77,78,79,80,81,82,83,84,85,86,87,88,89,90,91,92,93,94,95,96,97,98,99,100,101,102,103,104,105,106,107,108,109,110,111,112,113,114,115,116,117,118,119,120,121,122,123,124,125,126,127,128,129,130,131,132,133,134,135,136,137,138,139,140,141,142,143,144,145,146,147,148,149,150,151,152,153,154,155,156,157,158,159,160,161,162,163,164,165,166,167,168,169,170,171,172,173,174,175,176,177,178,179,180,181,182,183,184,185,186,187,188,189,190,191,192,193,194,195,196,197,198,199,200,201,202,203,204,205,206,207,208,209,210,211,212,213,214,215,216,217,218,219,220,221,222,223,224,225,226,227,228,229,230,231,232,233,234,235,236,237,238,239,240,241,244,245,246,247,248,249,250,251,252,253,254,255}] yes=14,no=13,missing=14
				13:[Account History Transaction Details<2] yes=19,no=20,missing=20
					19:leaf=-0.0636286065
					20:leaf=0.0962741673
				14:[device_model:{0,1,2,3,4,5,6,7,8,9,10,11,12,13,14,15,16,17,18,19,20,21,22,23,24,25,26,27,28,29,30,31,32,33,34,35,36,37,38,39,40,41,42,43,44,45,46,47,48,49,50,51,52,53,54,55,56,57,58,59,60,61,62,63,64,65,66,67,68,69,70,71,72,73,74,75,76,77,78,79,80,81,82,83,84,85,86,87,88,89,90,91,92,93,94,95,96,97,98,99,100,101,102,103,104,105,106,107,108,109,110,111,112,113,114,115,116,117,118,119,120,121,122,123,124,125,126,127,128,129,130,131,132,133,134,135,136,137,138,139,140,141,142,143,144,145,146,147,148,149,150,151,152,153,154,155,156,157,158,159,160,161,162,163,164,165,166,167,168,169,239}] yes=22,no=21,missing=22
					21:[Wallet Opened<3] yes=29,no=30,missing=30
						29:leaf=-0.181240976
						30:leaf=-0.00875852257
					22:[Wallet Opened<1] yes=31,no=32,missing=32
						31:leaf=-0.103207879
						32:leaf=0.0474359319
		4:[device_model:{0,1,2,3,4,5,6,7,8,9,10,11,12,13,14,15,16,17,18,19,20,21,22,23,24,25,26,27,28,29,30,31,32,33,34,35,36,37,38,39,40,41,42,43,44,45,46,47,48,49,50,51,52,53,54,55,56,57,58,59,60,61,62,63,64,65,66,67,68,69,70,71,72,73,74,75,76,77,78,79,80,81,82,83,84,85,86,87,88,89,90,91,92,93,94,95,96,97,98,99,100,101,102,103,104,105,106,107,108,109,110,111,112,113,114,115,116,117,118,119,120,121,122,123,124,125,126,127,128,129,130,131,132,133,134,135,136,137,138,139,140,141,142,143,144,145,146,147,148,149,150,151,152,153,154,155,156,157,158,159,160,161,162,163,164,165,166,167,168,169,170,171,172,173,174,175,176,177,178,179,180,181,182,183,184,185,186,187,188,189,190,191,192,193,194,195,196,197,198,199,200,201,202,203,204,205,206,207,208,209,210,211,212,213,214,215,216,217,218,219,220,221,222,223,224,225,226,227,228,229,230,231,232,233,234,235,236}] yes=10,no=9,missing=10
			9:leaf=0.0780431554
			10:leaf=-0.00445170794
	2:[Chat Conversation Opened<1] yes=5,no=6,missing=6
		5:leaf=0.123099916
		6:[device_model:{0,1,2,3,4,5,6,7,8,9,10,11,12,13,14,15,16,17,18,19,20,21,22,23,24,25,26,27,28,29,30,31,32,33,34,35,36,37,38,39,40,41,42,43,44,45,46,47,48,49,50,51,52,53,54,55,56,57,58,59,60,61,62,63,64,65,66,67,68,69,70,71,72,73,74,75,76,77,78,79,80,81,82,83,84,85,86,87,88,89,90,91,92,93,94,95,96,97,98,99,100,101,102,103,104,105,106,107,108,109,110,111,112,113,114,115,116,117,118,119,120,121,122,123,124,125,126,127,128,129,130,131,132,133,134,135,136,137,138,139,140,141,142,143,144,145,146,147,148,149,150,151,152,153,154,155,156,157,158,159,160,161,162,163,164,165,166,167,168,169,170,171,172,173,174,175,176,177,178,179,180,181,182,183,184,185,186,187,188,189,190,191,192,193,194,195,196,197,198,199,200,201,202,203,204,205,206,207,208,209,210,211,212,213,214,215,216,217,218,219,220,221,222,223,224,225,226,227,228,229,230,231,232,233,234,235,236,238,240,241,242,243,245,247,248,249,250,251,252,253}] yes=12,no=11,missing=12
			11:[Wallet Opened<6] yes=15,no=16,missing=16
				15:[Subscription Premium Renew<1] yes=23,no=24,missing=24
					23:[Wallet Opened<1] yes=33,no=34,missing=34
						33:leaf=0.0247820057
						34:leaf=0.24308376
					24:leaf=-0.0602310635
				16:leaf=-0.116717644
			12:[Wallet Opened<2] yes=17,no=18,missing=18
				17:[Wallet Opened<1] yes=25,no=26,missing=26
					25:[device_model:{0,1,2,3,4,5,6,7,8,9,10,11,12,13,14,15,16,17,18,19,20,21,22,23,24,25,26,27,28,29,30,31,32,33,34,35,36,37,38,39,40,41,42,43,44,45,46,47,48,49,50,51,52,53,54,55,56,57,58,59,60,61,62,63,64,65,66,67,68,69,70,71,72,73,74,75,76,77,78,79,80,81,82,83,84,85,86,87,88,89,90,91,92,93,94,95,96,97,98,99,100,101,102,103,104,105,106,107,108,109,110,111,112,113,114,115,116,117,118,119,120,121,122,123,124,125,126,127,128,129,130,131,132}] yes=36,no=35,missing=36
						35:leaf=0.0650974587
						36:leaf=-0.0853061602
					26:[Chat Conversation Opened<2] yes=37,no=38,missing=38
						37:leaf=0.0294926837
						38:leaf=-0.163484752
				18:[Add Vehicle Break<1] yes=27,no=28,missing=28
					27:[device_model:{0,1,2,3,4,5,6,7,8,9,10,11,12,13,14,15,16,17,18,19,20,21,22,23,24,25,26,27,28,29,30,31,32,33,34,35,36,37,38,39,40,41,42,43,44,45,46,47,48,49,50,51,52,53,54,55,56,57,58,59,60,61,62,63,64,65,66,67,68,69,70,71,72,73,74,75,76,77,78,79,80,81,82,83,84,85,86,87,88,89,90,91,92,93,94,95,96,97,98,99,100,101,102,103,104,105,106,107,108,109,110,111,112,113,114,115,116,117,118,119,120,121,122,123,124,125,126,127,128,129,130,131,132,133,134,135,136,137,138,139,140,141,142,143,144,145,146,147,148,149,150,151,152,153,154,155,156,157,158,159,160,161,162,163,164,165,166,167,168,169,170,171,172,173,174,175,176,177,178}] yes=40,no=39,missing=40
						39:leaf=0.160958558
						40:leaf=0.00137831445
					28:leaf=-0.0332382321
booster[28]:
0:[Transaction Refund<1] yes=1,no=2,missing=2
